user711,-0.19831842184066772,-0.10641899704933167,0.01898372173309326,-0.09079677611589432,-0.059680432081222534,-0.09622235596179962,0.1343841701745987,0.2879291772842407,-0.1487835943698883,-0.21555443108081818,-0.012005268596112728,-0.081663578748703,-0.0782286748290062,0.24567213654518127,0.04002900421619415,0.0874045193195343,-0.14003463089466095,0.18703849613666534,0.178227499127388,-0.11884516477584839,-0.016449764370918274,-0.2667912542819977,0.01886378601193428,-0.11738976836204529,-0.04736031964421272,-0.04144003987312317,-0.03300149366259575,-0.02460363134741783,0.02777615375816822,0.07082857191562653,-0.027642643079161644,0.10164931416511536,-0.07021017372608185,-0.0958566963672638,0.04589200019836426,-0.04081857204437256,0.09098640084266663,-0.024562843143939972,0.06548107415437698,0.0545087605714798,-0.03907429054379463,-0.01719675399363041,0.16571174561977386,-0.030581694096326828,0.03281030431389809,-0.057291630655527115,-2.0715415477752686,-0.020103542134165764,-0.21731632947921753,-0.21761053800582886,0.1163424551486969,-0.013189265504479408,0.1340966373682022,0.25133293867111206,0.18504348397254944,0.29545795917510986,-0.05295734107494354,0.3361092805862427,0.04973657429218292,0.046173736453056335,0.14515258371829987,0.00040517791057936847,-0.06426078081130981,1.4347992873808835e-05,-0.03553507849574089,0.02943849004805088,-0.0697750598192215,0.23943428695201874,-0.2612367570400238,0.3705768883228302,-0.1736331582069397,-0.10748662799596786,0.18996979296207428,-0.021350719034671783,0.05659008398652077,-0.10413588583469391,0.02093314565718174,0.16500553488731384,-0.03322840854525566,-0.02994067221879959,0.033793143928050995,0.17785127460956573,0.24444176256656647,0.11156958341598511,0.009484045207500458,0.1600482165813446,-0.1355646252632141,-0.16963337361812592,0.10575167834758759,0.41852638125419617,-0.14258624613285065,-0.05348338931798935,0.12669526040554047,0.21564586460590363,0.2819015383720398,-0.2083178460597992,-0.06413213163614273,0.008548548445105553,0.2997143566608429,0.2185341715812683,0.056095968931913376,-0.047833286225795746,0.049218159168958664,-0.23001010715961456,0.02164090797305107,-0.10858171433210373,-0.06508417427539825,-0.1576623022556305,-0.02405226044356823,-2.346214532852173,0.16866512596607208,0.1663733422756195,-0.08036529272794724,-0.22604241967201233,-0.13151082396507263,0.23849546909332275,0.17689460515975952,0.06101180240511894,0.057122502475976944,0.019954025745391846,-0.06953766942024231,0.4753612279891968,0.04546910151839256,-0.01740783266723156,0.06103648617863655,0.233586847782135,0.03668695688247681,-0.011057805269956589,0.20548270642757416,0.1305614709854126,0.16045740246772766,0.3323500454425812,-0.07454046607017517,-0.03670330345630646,-0.10714138299226761,0.09264577925205231,0.22503411769866943,-0.04726805537939072,-0.10807032883167267,0.006373892538249493,-0.2710322141647339,-0.052167583256959915,-2.7313449382781982,0.21360188722610474,0.3656131327152252,-0.01676439680159092,-0.07372766733169556,-0.04313511773943901,-0.008737137541174889,0.1728217452764511,0.09002180397510529,0.1002718061208725,-0.13415567576885223,0.06037869304418564,-0.1969926655292511,0.13706673681735992,-0.08810295164585114,-0.07091423869132996,0.13741035759449005,0.1538960337638855,0.07868245989084244,-0.04243369400501251,-0.06509529054164886,-0.12743854522705078,-0.06386800110340118,0.0488421730697155,0.14038915932178497,0.11386991292238235,0.08829661458730698,-0.012657387182116508,-0.10733325034379959,-0.06052084267139435,0.25572121143341064,-0.05086119472980499,0.2440434843301773,0.00959775224328041,0.053914885967969894,0.23872917890548706,-0.02427995204925537,-0.0014529277104884386,-0.1477353721857071,0.28032025694847107,0.10355494171380997,0.08827771246433258,0.03316594287753105,-0.05084337294101715,0.20538979768753052,-0.15571436285972595,0.1155831515789032,0.1870577186346054,-0.10666827112436295,-0.09635086357593536,0.08927413076162338,0.03866243362426758,0.2138122171163559,-0.020421409979462624,0.016250118613243103,-0.39078831672668457,0.19228847324848175,0.0547792911529541,-0.12159259617328644,-0.06444405764341354,-0.012690259143710136,0.03420616313815117,-0.1755525916814804,3.368269920349121,0.01626056805253029,-0.04991937056183815,0.09437769651412964,0.1441579908132553,0.04446873068809509,0.08947357535362244,-0.04419272765517235,-0.151397705078125,0.25374460220336914,-0.05011020228266716,0.18272718787193298,-0.0027796123176813126,0.03401154652237892,-0.023310448974370956,0.18875199556350708,0.18460173904895782,0.041300415992736816,0.22739703953266144,-0.22597040235996246,0.24310819804668427,0.08682885766029358,0.11437717080116272,0.04457329213619232,-1.041977882385254,0.0956803485751152,-0.07075975090265274,-0.04661780223250389,0.20890597999095917,-0.17352473735809326,-0.041899342089891434,0.03199702501296997,-0.028125278651714325,0.13595278561115265,0.03010227158665657,-0.08140388131141663,0.11279714852571487,0.23252925276756287,0.12899810075759888,-0.1390814334154129,0.16744305193424225,0.14942020177841187,0.03200027719140053,0.02848316729068756,-0.08337774872779846,0.15983477234840393,-0.15925650298595428,-0.06595215201377869,-0.19432783126831055,0.034907836467027664,-0.05656914785504341,0.09609752893447876,-0.022785963490605354,-0.2259339690208435,-0.0371675118803978,-0.20046384632587433,-0.0449671633541584,0.1653379648923874,0.015310799703001976,-0.22771522402763367,-0.17048722505569458,-0.007433074060827494,-0.15633471310138702,0.17067644000053406,-0.049658723175525665,-0.060126930475234985,0.011289767920970917,-0.25076019763946533,-3.7230353355407715,-0.053520627319812775,-0.08823509514331818,0.2856690287590027,0.1949802190065384,-0.04402867332100868,0.009466087445616722,0.09326338022947311,0.2220044881105423,-0.1374860405921936,0.31200167536735535,0.12225282937288284,0.03195076063275337,0.13203632831573486,-0.34557998180389404,0.14727625250816345,0.0071933395229279995,-0.12121829390525818,0.04953980818390846,-0.08901131898164749,0.06110727787017822,0.2777182459831238,-0.10973948240280151,0.002239116933196783,-0.04203040897846222,-0.08843038231134415,-0.234135240316391,-0.2344447523355484,0.051807843148708344,-0.09010695666074753,-0.05309779569506645,-0.18371795117855072,0.10349062085151672,-0.14100301265716553,-0.17577360570430756,-2.8824973106384277,-0.04806099086999893,-0.13640214502811432,-0.09541761130094528,0.10598347336053848,-0.17777104675769806,0.2644617557525635,-0.10785529017448425,-0.18740186095237732,0.0812196359038353,0.08549118787050247,-0.05781549587845802,0.037944044917821884,0.1166156455874443,0.2088971734046936,0.17837966978549957,0.17494472861289978,0.013549022376537323,0.08754019439220428,0.11003009974956512,0.009433344937860966,-0.043023768812417984,-0.020154064521193504,-0.08622134476900101,0.0014842870878055692,0.2382824867963791,-0.3462458848953247,0.008069774135947227,-0.21961623430252075,-0.15936391055583954,-0.008375678211450577,-0.11907920241355896,-0.0774816945195198,0.014557632617652416,-0.16244512796401978,-0.18545137345790863,0.10803930461406708,0.23405171930789948,0.3258247673511505,0.09209369868040085,-0.15025891363620758,0.49524009227752686,0.08797764033079147,0.17590570449829102,0.37598496675491333,0.0860157310962677,0.07615608721971512,-0.16053658723831177,-0.07476929575204849,0.1286601573228836,-0.05530713126063347,-0.045627132058143616,1.0009183883666992,-0.08449693024158478,0.15100212395191193,-0.15342289209365845,0.28274431824684143,0.06648609787225723,-0.03348691388964653,0.07407717406749725,0.33852848410606384,-0.053611885756254196,0.13612288236618042,-0.06497044861316681,0.0013991668820381165,-0.22068218886852264,0.15156026184558868,-0.29373347759246826,0.03699757531285286,-0.02207116037607193,-0.10390086472034454,0.22853794693946838,0.007146747782826424,-0.8350633978843689,-0.1472955346107483,0.06577445566654205,-0.08747785538434982,0.08066825568675995,0.022000527009367943,0.03316669538617134,-0.22435371577739716,0.009755134582519531,-0.012880445457994938,0.2369915246963501,-0.13429880142211914,-0.018182823434472084,-0.08833888173103333,-0.026526866480708122,-0.32100680470466614,0.09673916548490524,-0.10556697100400925,0.09745141863822937,0.12322034686803818,0.0499374121427536,0.07858933508396149,0.014155772514641285,0.286393404006958,-0.7232865691184998,0.07566067576408386,-0.15875452756881714,0.051909189671278,-0.19390703737735748,-0.11849702149629593,-0.05806449428200722,-0.18690796196460724,-0.1420826017856598,-0.17027416825294495,0.3145548105239868,-0.02106974646449089,0.13864126801490784,0.0678873285651207,0.14291127026081085,0.055635321885347366,0.09375262260437012,0.7224842309951782,-0.035321999341249466,-0.030756467953324318,0.26936373114585876,0.029855160042643547,0.1453022062778473,0.12662561237812042,0.11600266396999359,-0.024821912869811058,-0.0734034925699234,-0.09239751845598221,0.019363494589924812,-0.04055160656571388,-0.24176687002182007,-0.2774708569049835,0.017690766602754593,0.03802889958024025,-0.005923709832131863,-0.04000386595726013,-0.521584153175354,-0.02310396172106266,-0.2690908908843994,-0.1260804384946823,0.20087043941020966,0.26749250292778015,-0.005079085938632488,0.2294442355632782,0.08504922688007355,0.008800693787634373,0.32467570900917053,-0.027434606105089188,0.2681828737258911,0.08011293411254883,0.0481206551194191,-0.0037312377244234085,0.26214882731437683,-0.0415220633149147,-0.24395215511322021,0.1516045331954956,-0.18330118060112,0.10333440452814102,0.00848415121436119,0.03316200152039528,-0.06862951070070267,-0.0508873425424099,-0.045405756682157516,0.03437868505716324,0.11121900379657745,-1.188586950302124,0.22208090126514435,0.12364674359560013,-0.024757973849773407,0.0848320946097374,-0.08092253655195236,-0.1391323059797287,0.27537214756011963,0.08617809414863586,0.008325602859258652,-0.09573289006948471,-0.07877682894468307,-0.049100104719400406,0.015725433826446533,0.03746725618839264,-0.08832328021526337,0.09991278499364853,0.048224225640296936,0.07493685185909271,0.08254688233137131,-0.053688451647758484,0.29658734798431396,0.09751768410205841,-0.1002267450094223,-0.06453704088926315,-0.003758360631763935,-0.01742841675877571,0.31861603260040283,0.08798956125974655,0.10958840698003769,0.06686142086982727,-0.24995660781860352,-0.3991354703903198,-0.05771632492542267,0.22476811707019806,0.19252826273441315,0.043241363018751144,-0.018202686682343483,0.14231756329536438,0.10173361748456955,-0.33105385303497314,0.23141057789325714,0.11094743013381958,-0.039357271045446396,0.3997723460197449,0.14792168140411377,-0.14883533120155334,0.07911884039640427,0.06601620465517044,-0.17541342973709106,-0.13918232917785645,-0.09327417612075806,-0.01069675013422966,-0.10750413686037064,0.02741342782974243,0.039089497178792953,-0.04182956740260124,-0.007800722029060125,-0.161638081073761,-0.0755794495344162,0.19661901891231537,-0.18919315934181213,-0.032832685858011246,0.2275262027978897,-0.1304279863834381,-0.5301291346549988,-0.1041492447257042,0.02219691313803196,0.005932886153459549,0.0857338234782219,0.24699077010154724,0.05125803500413895,-0.02975306659936905,0.14042489230632782,-0.3286597728729248,0.13572372496128082,0.021982908248901367,0.04488873854279518,0.02939230389893055,-0.19374454021453857,-0.015306157991290092,-0.2884308695793152,-0.193508580327034,0.19077688455581665,-0.03245115652680397,0.061577245593070984,-0.06076870113611221,0.06171824783086777,-0.017799120396375656,0.026664579287171364,-0.21031534671783447,-0.20895890891551971,0.14829620718955994,0.0570170059800148,0.11399901658296585,-0.0484810434281826,0.05546994507312775,0.014703312888741493,-0.07724844664335251,0.026489708572626114,-0.029375236481428146,0.2319519966840744,0.12894314527511597,0.1672135591506958,0.08190024644136429,0.0780520811676979,0.1899714469909668,0.09316284209489822,-0.20378108322620392,0.036112960427999496,0.013202270492911339,0.0962541401386261,-0.05881505832076073,0.02075904607772827,0.016715284436941147,-0.1642761081457138,-0.04161674901843071,-0.020412839949131012,1.987496018409729,0.29854413866996765,0.021652955561876297,0.04172214865684509,0.21236878633499146,0.04321183264255524,-0.014462471008300781,0.13973625004291534,-0.0967971608042717,0.1868802011013031,0.0012766580330207944,0.07596132904291153,-0.08304963260889053,0.1378810554742813,0.26559603214263916,0.18747812509536743,-0.01971864327788353,-0.26596641540527344,-0.2980121672153473,-0.012095811776816845,-0.33060792088508606,0.2874431908130646,0.21403653919696808,-0.0060373093001544476,0.009079208597540855,0.11277507990598679,0.05105315148830414,-0.14177624881267548,0.05613132566213608,0.0441603846848011,-0.04221189022064209,0.05176911875605583,0.1267293393611908,0.2943148910999298,-0.1180136650800705,0.024608904495835304,0.06933601200580597,-0.2577264904975891,-0.11896616965532303,0.036931153386831284,0.029921669512987137,-0.2080107480287552,0.3332382142543793,-0.026010675355792046,0.057263053953647614,0.3125497102737427,-0.03590346872806549,-0.22750215232372284,0.18422971665859222,0.14061541855335236,0.020020142197608948,-0.04807547479867935,-0.13124173879623413,0.10586956143379211,-0.06710168719291687,-0.09655938297510147,0.06174876168370247,-0.013168211095035076,-0.01811273582279682,0.25854310393333435,0.05147164314985275,0.15783865749835968,0.23458734154701233,-0.06622523069381714,0.12030379474163055,0.07891514152288437,-0.22879615426063538,0.16058459877967834,0.06252667307853699,0.06405411660671234,0.02904617227613926,0.1318594068288803,0.16391374170780182,0.11795535683631897,0.1337091028690338,-0.08537308871746063,0.2799404561519623,0.05024551972746849,-0.0710664838552475,-2.710127830505371,0.11221107840538025,0.07027765363454819,0.11185257881879807,-0.0225825235247612,0.2840336561203003,0.18193596601486206,-0.11630073189735413,0.06297792494297028,-0.1401999443769455,0.13384467363357544,0.2011152058839798,0.22974196076393127,0.08134147524833679,0.15278202295303345,0.07408127933740616,0.040768101811409,-0.10342663526535034,-0.03615357354283333,-0.10981683433055878,-0.044936653226614,0.06192398443818092,-0.06715600937604904,-0.20793582499027252,-0.26242247223854065,0.10629259794950485,-0.14347362518310547,-0.16843263804912567,0.07506398856639862,0.06696893274784088,-0.13482263684272766,0.18380022048950195,-0.048805929720401764,0.08511267602443695,-0.00727611081674695,-0.22274750471115112,-0.0782865583896637,-0.044011764228343964,0.00019400760356802493,0.07740891724824905,-0.07850564271211624,0.3384026288986206,-0.06558536738157272,0.07084488868713379,-0.11314225196838379,0.03946719318628311,0.26414522528648376,-0.2076142430305481,0.23669742047786713,-0.26610153913497925,-0.02977513149380684,0.1731744259595871,0.07553504407405853,-0.02078757807612419,0.15689729154109955,0.08301008492708206,0.11492779850959778,0.0647362768650055,-0.04178933799266815,-0.18059943616390228,-0.02449932135641575,0.03564099967479706,-0.01983925700187683,0.1003699079155922,0.17945390939712524,-0.07455868273973465,-0.10917429625988007,-0.02744700387120247,-0.029043715447187424,-0.04745282977819443,-0.09666401147842407,-0.09570226818323135,0.16645964980125427,0.12101862579584122,0.09184703975915909,-0.048317257314920425,0.2647932767868042,0.20055273175239563,0.06784064322710037,0.144740492105484,0.03895754739642143,-0.23085394501686096,0.005704541224986315,-0.03773563355207443,0.1924576610326767,-7.293099880218506,-0.22039924561977386,-0.15113480389118195,-0.08671952039003372,-0.06848803907632828,-0.1575799137353897,0.09079939126968384,-0.1259937733411789,0.04759528115391731,-0.07569680362939835,0.16346359252929688,-0.02398880571126938,-0.06762182712554932,-0.13868965208530426,0.1857331097126007,0.2787628173828125
user842,-0.19730500876903534,-0.06512163579463959,0.03798135370016098,-0.15551859140396118,-0.0334153026342392,-0.08045925945043564,0.16076327860355377,0.2836180627346039,-0.20528240501880646,-0.1863776594400406,-0.004309824202209711,-0.09137589484453201,-0.06351561844348907,0.25082018971443176,0.05496540665626526,0.0995670035481453,-0.13345867395401,0.2068382203578949,0.18047398328781128,-0.1439419984817505,-0.0177924744784832,-0.26233550906181335,-0.011095969937741756,-0.09643398225307465,-0.05077198147773743,-0.016607873141765594,-0.08239895850419998,-0.005634750239551067,0.07724936306476593,0.056304931640625,-0.0060486579313874245,0.023914925754070282,-0.010897450149059296,-0.002168994164094329,0.0312259029597044,-0.01718800514936447,0.07428958266973495,-0.06386535614728928,0.06096984073519707,0.04177781566977501,-0.015458646230399609,-0.0366387814283371,0.12096712738275528,-0.061415184289216995,0.004739001858979464,-0.05164780095219612,-1.9521417617797852,0.009114772081375122,-0.16045816242694855,-0.1724196821451187,0.15302132070064545,-0.003935681656002998,0.15791191160678864,0.22677378356456757,0.16257867217063904,0.2291320562362671,-0.08533968776464462,0.3791017234325409,0.049749746918678284,-0.009861161932349205,0.12134155631065369,0.028173338621854782,-0.05351289361715317,0.05177416652441025,-0.0205816812813282,0.03422340005636215,-0.005021631717681885,0.1580161452293396,-0.19690681993961334,0.3509206473827362,-0.13190990686416626,-0.07016648352146149,0.2175230234861374,0.025035293772816658,0.08695323765277863,-0.05539978668093681,0.012791341170668602,0.11518775671720505,-0.025400632992386818,0.025594661012291908,0.02675057202577591,0.10624749958515167,0.21544592082500458,0.11774785816669464,-0.039981722831726074,0.14852064847946167,-0.1449984610080719,-0.16418781876564026,0.14584843814373016,0.3476593494415283,-0.20982685685157776,-0.010349500924348831,0.1254100352525711,0.19813133776187897,0.22263923287391663,-0.22367683053016663,-0.04546749219298363,-0.023820996284484863,0.3241944909095764,0.13006004691123962,-0.019869018346071243,-0.02788529172539711,0.016467297449707985,-0.19848471879959106,-0.03240413963794708,-0.07667219638824463,-0.04773430898785591,-0.11170578747987747,-0.0630631372332573,-2.5354232788085938,0.13893809914588928,0.16663429141044617,-0.06945574283599854,-0.22156046330928802,-0.03429357707500458,0.2354404777288437,0.2294677346944809,0.0826980322599411,-0.0047798785381019115,-0.01314020249992609,-0.14751236140727997,0.4666953682899475,0.08157599717378616,-0.11602959781885147,0.07974476367235184,0.18257054686546326,0.0348295159637928,-0.07421714067459106,0.11611694097518921,0.10861975699663162,0.12680862843990326,0.28770723938941956,-0.10824302583932877,0.0005357059999369085,-0.08540749549865723,0.06633270531892776,0.18729065358638763,-0.03959597274661064,-0.06135005131363869,0.04062223434448242,-0.27310094237327576,-0.03910066932439804,-2.976092576980591,0.23264947533607483,0.27199986577033997,-0.06869681179523468,-0.09282159805297852,-0.008831992745399475,0.013333356007933617,0.14132395386695862,0.10453199595212936,0.08660230040550232,-0.10991831868886948,0.04889610409736633,-0.21655550599098206,0.08187033981084824,-0.03276187926530838,-0.05559705197811127,0.1545047163963318,0.14534805715084076,0.08195348083972931,-0.0862848162651062,-0.04057702422142029,-0.09710963070392609,-0.07160329073667526,0.04039633646607399,0.1428041309118271,0.12715382874011993,0.06759446114301682,-0.009067319333553314,-0.11667271703481674,-0.08468709141016006,0.17687784135341644,-0.043916042894124985,0.16707241535186768,0.007446054369211197,0.09780768305063248,0.21049481630325317,-0.028413545340299606,-0.009184079244732857,-0.1335187405347824,0.22643470764160156,0.0796079933643341,0.11723306775093079,0.018048109486699104,0.01316751353442669,0.17894506454467773,-0.12489107251167297,0.1245112344622612,0.20596009492874146,-0.049276355654001236,-0.0559980645775795,0.16053971648216248,0.07570742815732956,0.1479039043188095,-0.0065941535867750645,0.010941785760223866,-0.3763684928417206,0.20163068175315857,0.06465102732181549,-0.17921708524227142,-0.09254956990480423,-0.01693449541926384,0.05487878620624542,-0.17336982488632202,3.5182747840881348,0.015366698615252972,-0.07597247511148453,0.07283327728509903,0.08721170574426651,0.022373773157596588,0.07229465246200562,-0.013210829347372055,-0.12382039427757263,0.2179485708475113,-0.038727983832359314,0.17901164293289185,0.0004962724633514881,0.030383886769413948,-0.02539156936109066,0.13943874835968018,0.207736536860466,0.05622665956616402,0.128341943025589,-0.17846137285232544,0.2032810002565384,0.11621765792369843,0.10897676646709442,0.04069294407963753,-1.0305119752883911,0.06036874279379845,-0.09919630736112595,-0.10117016732692719,0.21831519901752472,-0.14459575712680817,-0.05154019966721535,0.04921245574951172,-0.0008830003207549453,0.1610085368156433,0.054581861943006516,-0.06985599547624588,0.06376124173402786,0.2267998903989792,0.1892186999320984,-0.18796642124652863,0.23814357817173004,0.14181452989578247,0.07371474802494049,0.0010315971449017525,-0.06619704514741898,0.1721402406692505,-0.16902875900268555,-0.04519648104906082,-0.12666761875152588,0.01813657023012638,-0.04901983216404915,0.08982729911804199,-0.0006366546731442213,-0.18029506504535675,-0.012087610550224781,-0.20052506029605865,-0.051157478243112564,0.2126666009426117,-0.033391546458005905,-0.1505608707666397,-0.09630587697029114,0.019257543608546257,-0.21549373865127563,0.16561037302017212,-0.07381225377321243,-0.08928772062063217,0.07527361065149307,-0.2106347233057022,-4.087740898132324,-0.025854716077446938,-0.07803835719823837,0.26092594861984253,0.1560516655445099,-0.05643061548471451,0.00017558150284457952,0.04088300094008446,0.19323313236236572,-0.16004270315170288,0.3044796288013458,0.16267961263656616,0.012289520353078842,0.1500961184501648,-0.31742924451828003,0.15550842881202698,0.08622853457927704,-0.09883811324834824,0.017540454864501953,-0.07197379320859909,0.06487196683883667,0.24810701608657837,-0.13249464333057404,0.01370582077652216,-0.023586656898260117,-0.14313282072544098,-0.17620766162872314,-0.18207654356956482,0.08846201747655869,-0.13362355530261993,-0.04049999639391899,-0.10146056860685349,0.12907497584819794,-0.06877230852842331,-0.1706652194261551,-2.388288736343384,-0.09132957458496094,-0.15597067773342133,-0.1113201230764389,0.08684472739696503,-0.12957251071929932,0.18377679586410522,-0.13884736597537994,-0.18900173902511597,0.07568477094173431,0.12611745297908783,-0.025151202455163002,0.0243667121976614,0.09273314476013184,0.21784967184066772,0.07663726061582565,0.059366628527641296,0.0038452979642897844,0.0749872475862503,0.0517234243452549,0.0024974921252578497,0.005275219213217497,-0.062367577105760574,-0.03295138105750084,-0.010579538531601429,0.20580759644508362,-0.31371453404426575,0.032124798744916916,-0.23807233572006226,-0.12141796201467514,-0.048201028257608414,-0.08393991738557816,-0.062494855374097824,0.04333657771348953,-0.16765525937080383,-0.18466758728027344,0.08294601738452911,0.22055965662002563,0.31049320101737976,0.10931137949228287,-0.14420682191848755,0.4627225995063782,0.06866106390953064,0.15643683075904846,0.27026334404945374,0.12868326902389526,0.0426623709499836,-0.1836712509393692,-0.09488881379365921,0.11620638519525528,-0.06708409637212753,0.012606862001121044,1.0293525457382202,-0.07109266519546509,0.1844652146100998,-0.1411558985710144,0.24100519716739655,0.02305806800723076,0.047204628586769104,0.07085154950618744,0.2847885489463806,-0.003947788383811712,0.15324416756629944,-0.006957388948649168,-0.013097023591399193,-0.1603788137435913,0.140214741230011,-0.21848544478416443,0.032170649617910385,-0.06036243587732315,-0.08359770476818085,0.1619197279214859,0.01949254237115383,-0.7262796759605408,-0.21550831198692322,0.06525570154190063,-0.09791894257068634,0.05202510207891464,0.04092668369412422,-0.0004464960948098451,-0.16295473277568817,0.030219266191124916,0.0812072828412056,0.19894033670425415,-0.04327281937003136,-0.045618657022714615,-0.09515432268381119,-0.05037537217140198,-0.24915990233421326,0.10502415895462036,-0.1327478289604187,0.08875377476215363,0.11791706085205078,0.028604144230484962,0.0939207449555397,0.037680476903915405,0.1942778378725052,-0.7114623785018921,0.039811667054891586,-0.15946868062019348,0.044867560267448425,-0.14050428569316864,-0.12191888689994812,0.034680865705013275,-0.13771358132362366,-0.17112889885902405,-0.1288338601589203,0.3163825273513794,-0.10433246940374374,0.11712776124477386,0.05076593905687332,0.17444978654384613,0.032301563769578934,0.04899531230330467,0.7740453481674194,-0.04380817338824272,-0.03311625123023987,0.23330146074295044,-0.0036611855030059814,0.17335142195224762,0.1429469883441925,0.0738857164978981,-0.002779048401862383,0.0033445474691689014,-0.06694561243057251,0.017370598390698433,-0.04072049260139465,-0.24659797549247742,-0.2994978427886963,0.0473417192697525,0.10009299218654633,-0.014015130698680878,-0.0010477600153535604,-0.557090163230896,-0.018338335677981377,-0.20215654373168945,-0.09939233958721161,0.14462251961231232,0.20555849373340607,0.0429898202419281,0.14454904198646545,0.08452319353818893,0.018694579601287842,0.36915484070777893,-0.04263783618807793,0.2167372852563858,0.05349712073802948,0.04321436583995819,-0.0011626977939158678,0.23772868514060974,-0.005649183876812458,-0.2124807983636856,0.18317610025405884,-0.10979985445737839,0.08185666054487228,0.026054194197058678,0.09543787688016891,-0.05616674944758415,-0.024339258670806885,0.0723140686750412,-0.02035263366997242,0.06056723743677139,-1.1273725032806396,0.16840334236621857,0.14329451322555542,-0.03498490899801254,0.10600467771291733,-0.09946652501821518,-0.10009073466062546,0.2313166856765747,0.09243294596672058,0.04516017809510231,-0.07271886616945267,-0.010084902867674828,-0.10569820553064346,-0.024486737325787544,0.020031604915857315,-0.05161581560969353,0.16884073615074158,0.059472594410181046,0.047697629779577255,0.1374063789844513,0.03570235148072243,0.26126763224601746,0.07164070010185242,-0.09711343795061111,-0.04197113215923309,-0.051507968455553055,-0.016263466328382492,0.34083327651023865,0.13085317611694336,0.04962233453989029,0.04646202176809311,-0.21774135529994965,-0.35815155506134033,-0.011999895796179771,0.1978968232870102,0.17289850115776062,0.0329802930355072,0.050178393721580505,0.09976556897163391,0.015608702786266804,-0.37089595198631287,0.21737784147262573,0.09588772803544998,-0.08483335375785828,0.4047873318195343,0.1349276602268219,-0.13517601788043976,0.08391846716403961,0.0696878656744957,-0.131318137049675,-0.07198531925678253,-0.03622007369995117,-0.022505905479192734,-0.06259891390800476,0.031044509261846542,0.044206686317920685,0.007540132384747267,-0.06607881188392639,-0.12493382394313812,-0.06767378002405167,0.21083219349384308,-0.2759835124015808,-0.011868343688547611,0.2476167529821396,-0.11959807574748993,-0.493810772895813,-0.14803776144981384,0.026342403143644333,0.01732766628265381,0.06930896639823914,0.24266958236694336,0.05835959315299988,-0.049427714198827744,0.1013435572385788,-0.3012962341308594,0.1378311961889267,-0.004796540830284357,0.13611194491386414,0.11959507316350937,-0.18849998712539673,-0.004735033959150314,-0.2446182370185852,-0.16433674097061157,0.14498907327651978,0.05884196609258652,0.04452250897884369,0.05016934499144554,0.051562219858169556,-0.04712909087538719,0.029100367799401283,-0.16884027421474457,-0.1735346019268036,0.10296576470136642,0.08380403369665146,0.09630441665649414,0.03330617770552635,0.11334582418203354,0.01804829202592373,-0.07132716476917267,0.037044648081064224,-0.007925750687718391,0.24447597563266754,0.07434511929750443,0.12758219242095947,0.005674740765243769,0.07464218884706497,0.18157438933849335,0.12566633522510529,-0.13619890809059143,0.06777454167604446,-0.003932430874556303,0.08199238777160645,-0.033428389579057693,0.045980554074048996,0.028621749952435493,-0.10671340674161911,-0.05330794304609299,0.016543079167604446,2.1652984619140625,0.2883865237236023,-0.028821371495723724,0.0019844004418700933,0.16197574138641357,0.06151788309216499,-0.008034021593630314,0.12790974974632263,-0.09403255581855774,0.12698598206043243,0.051355425268411636,0.041735582053661346,-0.10256610810756683,0.14635832607746124,0.28586962819099426,0.17471256852149963,-0.018697865307331085,-0.2088194340467453,-0.26274222135543823,-0.023537373170256615,-0.33532389998435974,0.25792214274406433,0.14528429508209229,-0.030100982636213303,-0.05126150697469711,0.11323407292366028,0.036642350256443024,-0.11693375557661057,0.0742824375629425,0.02577098459005356,-0.02744780108332634,0.05501382052898407,0.07698013633489609,0.2656446695327759,-0.0998365506529808,0.07325094193220139,0.06469686329364777,-0.257865309715271,-0.10007493197917938,0.04021448642015457,0.04633348062634468,-0.19305628538131714,0.22252778708934784,0.0038578554522246122,0.053884368389844894,0.25536417961120605,-0.012862881645560265,-0.19114774465560913,0.15547579526901245,0.15959002077579498,-0.05732838064432144,-0.06387998908758163,-0.09702301025390625,0.09524926543235779,-0.03974270448088646,-0.12237416207790375,0.08914468437433243,-0.023007186129689217,-0.045125558972358704,0.2432880997657776,0.00967106781899929,0.15677925944328308,0.17503663897514343,-0.04785297065973282,0.20673297345638275,0.006379941012710333,-0.23305661976337433,0.10046127438545227,0.028552353382110596,-0.020782528445124626,0.008924962021410465,0.07812363654375076,0.13699668645858765,0.07914053648710251,0.08201596140861511,-0.09078400582075119,0.24167338013648987,-0.045468367636203766,-0.0779663696885109,-3.007744550704956,0.08314269036054611,0.004640336148440838,0.03896096348762512,0.0343313105404377,0.24070735275745392,0.1706342101097107,-0.11033222079277039,0.024848060682415962,-0.12586906552314758,0.1463703215122223,0.23595117032527924,0.18392202258110046,0.10214406251907349,0.14540652930736542,0.11670398712158203,0.03614756464958191,-0.09481381624937057,-0.008498495444655418,-0.04783095791935921,-0.046412143856287,0.02431630529463291,-0.10177377611398697,-0.1550542116165161,-0.2379944920539856,0.12766173481941223,-0.152780681848526,-0.12484540045261383,0.026047203689813614,0.004868319723755121,-0.10400035232305527,0.2150978446006775,-0.024515710771083832,0.10942620038986206,-0.024392880499362946,-0.1984778195619583,-0.03273005783557892,-0.029198553413152695,0.016166720539331436,0.09297451376914978,-0.07809958606958389,0.280912846326828,-0.022513017058372498,0.05255910009145737,-0.09157653152942657,0.02551983669400215,0.24334660172462463,-0.1912175565958023,0.12933212518692017,-0.19631843268871307,-0.03966890648007393,0.1448659747838974,0.09480201452970505,-0.008936974219977856,0.1988939642906189,0.11916205286979675,0.1058625802397728,0.027780650183558464,-0.06590316444635391,-0.1903359740972519,0.003915136214345694,0.06807639449834824,0.04197057709097862,0.06040715053677559,0.19864273071289062,-0.04927738755941391,-0.12721313536167145,-0.05220700427889824,-0.02271776832640171,-0.018280409276485443,-0.09623470157384872,-0.048690441995859146,0.17859920859336853,0.07393798977136612,0.07552046328783035,-0.061987269669771194,0.19071273505687714,0.17600588500499725,0.03485117852687836,0.16688218712806702,0.03627527132630348,-0.21492081880569458,0.04027409851551056,-0.04976079985499382,0.15932151675224304,-7.912111282348633,-0.20482099056243896,-0.1032622903585434,-0.10467442870140076,-0.0038704790640622377,-0.1299578696489334,0.07293732464313507,-0.07696598768234253,0.05282728746533394,-0.08521066606044769,0.16892963647842407,-0.10049005597829819,-0.06404335796833038,-0.09711793065071106,0.18569330871105194,0.2540457248687744
user103,-0.16529980301856995,-0.10089121758937836,0.008178642950952053,-0.1373416781425476,-0.03999042883515358,-0.09205546975135803,0.18728935718536377,0.29552212357521057,-0.17881684005260468,-0.2037181854248047,-0.038043029606342316,-0.09092447906732559,-0.08938124775886536,0.26871490478515625,0.09894731640815735,0.07074633240699768,-0.1310524344444275,0.20094406604766846,0.18574972450733185,-0.12704861164093018,-0.015280425548553467,-0.26521092653274536,-0.003819380421191454,-0.11793255060911179,-0.0535222589969635,-0.023564739152789116,-0.04291735589504242,-0.014607719145715237,0.02974792756140232,0.04245446249842644,-0.009109850972890854,0.03724004700779915,-0.05221543461084366,-0.002082808641716838,0.016706813126802444,-0.029602833092212677,0.0548904687166214,-0.040749549865722656,0.06006188318133354,0.03377755731344223,-0.045831114053726196,-0.07027591019868851,0.14022868871688843,-0.026285450905561447,0.029639150947332382,-0.044279713183641434,-2.002866268157959,-0.004857704043388367,-0.19134746491909027,-0.1748095154762268,0.1460951268672943,0.012943643145263195,0.14392447471618652,0.2296188771724701,0.18818563222885132,0.23757953941822052,-0.08010231703519821,0.35515522956848145,0.022830700501799583,0.023737382143735886,0.17359201610088348,0.03841906785964966,-0.05520503968000412,0.021458402276039124,0.004617788828909397,0.027962932363152504,-0.02995721809566021,0.1913520097732544,-0.23428760468959808,0.356367826461792,-0.16109077632427216,-0.07343856245279312,0.20205190777778625,0.03250086307525635,0.08615827560424805,-0.07823628932237625,-0.010486614890396595,0.16787829995155334,-0.03442457318305969,-0.007734519429504871,0.041030000895261765,0.12989765405654907,0.2202705442905426,0.11457692086696625,-0.01612027734518051,0.13713613152503967,-0.15961287915706635,-0.19635479152202606,0.16349785029888153,0.39259257912635803,-0.18910495936870575,-0.015498677268624306,0.09065181016921997,0.21278983354568481,0.24671070277690887,-0.1928122639656067,-0.06733576953411102,-0.017723005264997482,0.32657015323638916,0.14857779443264008,0.012717161327600479,-0.03573310747742653,0.037804942578077316,-0.2180745005607605,-0.02430809661746025,-0.08728861063718796,-0.06891386955976486,-0.13153737783432007,-0.048515427857637405,-2.481318235397339,0.13700611889362335,0.19327816367149353,-0.0956556499004364,-0.2501427233219147,-0.08815783262252808,0.21927811205387115,0.20735174417495728,0.06760772317647934,0.015125202015042305,0.004869609605520964,-0.11628712713718414,0.4886026084423065,0.06779424101114273,-0.07396065443754196,0.056571897119283676,0.22661352157592773,0.05053716152906418,-0.06916660070419312,0.17931051552295685,0.1381266713142395,0.14634865522384644,0.32947883009910583,-0.0746060311794281,-0.012629701755940914,-0.1145387813448906,0.05836286395788193,0.2015646994113922,-0.07956197112798691,-0.09020508825778961,0.027698900550603867,-0.2946855127811432,-0.034793421626091,-2.8875131607055664,0.23671172559261322,0.34126949310302734,-0.024996306747198105,-0.08461685478687286,-0.035593338310718536,0.0011246103094890714,0.14297939836978912,0.08361488580703735,0.07648646086454391,-0.10453522950410843,0.05848497897386551,-0.23698246479034424,0.13144662976264954,-0.04643053561449051,-0.05401454120874405,0.14056932926177979,0.1536826640367508,0.0945575013756752,-0.05160488560795784,-0.04165487363934517,-0.09418663382530212,-0.083515465259552,0.07184196263551712,0.17130231857299805,0.13888601958751678,0.09548065066337585,-0.05902931094169617,-0.1389940232038498,-0.09651429951190948,0.19732646644115448,-0.04195431247353554,0.17981262505054474,0.009476619772613049,0.05189566686749458,0.22318655252456665,0.0012975996360182762,-0.014547660015523434,-0.1378956437110901,0.23798038065433502,0.10369648784399033,0.12214997410774231,0.02490205504000187,-0.004637155681848526,0.2076771855354309,-0.13477858901023865,0.10680021345615387,0.21837705373764038,-0.09412173926830292,-0.0658303052186966,0.1410161852836609,0.07368455827236176,0.1835988461971283,-0.025510836392641068,0.012455664575099945,-0.35670197010040283,0.20542091131210327,0.08636577427387238,-0.14283880591392517,-0.0835019126534462,-0.009688423946499825,0.025236936286091805,-0.19030886888504028,3.485602378845215,0.01721852272748947,-0.07986745983362198,0.09556258469820023,0.09738296270370483,-0.0005021936376579106,0.07666675746440887,0.0015422472497448325,-0.12464289367198944,0.23235107958316803,-0.03316767141222954,0.15635992586612701,-0.027830982580780983,0.039036620408296585,-0.016802411526441574,0.16906355321407318,0.1935511827468872,0.0597817525267601,0.16892948746681213,-0.2027030736207962,0.2342197746038437,0.09891054034233093,0.14558809995651245,0.04400979354977608,-1.0513393878936768,0.04698953032493591,-0.0852503776550293,-0.11080688238143921,0.24860258400440216,-0.15703797340393066,-0.02702650986611843,0.027895698323845863,-0.01646438241004944,0.13143818080425262,0.025713631883263588,-0.06339765340089798,0.0905623510479927,0.21157537400722504,0.14433681964874268,-0.16091182827949524,0.234914630651474,0.1339753270149231,0.034880124032497406,0.0493902862071991,-0.06181321665644646,0.20498478412628174,-0.1707797795534134,-0.08340071886777878,-0.18735727667808533,0.03143426775932312,-0.060891781002283096,0.10330989211797714,-0.0061592478305101395,-0.22987844049930573,7.318172720260918e-05,-0.21435776352882385,-0.038285039365291595,0.1982039213180542,-0.002175102708861232,-0.1851278692483902,-0.1714751124382019,0.023105764761567116,-0.17863832414150238,0.16004158556461334,-0.07353398948907852,-0.08179245889186859,0.010031190700829029,-0.2191663384437561,-3.9650936126708984,-0.04430597275495529,-0.07029963284730911,0.27691134810447693,0.19110454618930817,-0.049642134457826614,0.0026634586974978447,0.09273699671030045,0.1725325584411621,-0.15781450271606445,0.31738531589508057,0.17741911113262177,0.0126833226531744,0.12466850876808167,-0.3508692979812622,0.1522236168384552,0.06858332455158234,-0.10479018092155457,0.025848882272839546,-0.07272990047931671,0.06952600926160812,0.27309271693229675,-0.14537255465984344,0.029317529872059822,0.006447487976402044,-0.10996641218662262,-0.18556886911392212,-0.20829036831855774,0.08870019018650055,-0.1339891254901886,-0.051036614924669266,-0.14008456468582153,0.11352143436670303,-0.08422337472438812,-0.1896326243877411,-2.508450984954834,-0.05103663355112076,-0.15155082941055298,-0.11892683804035187,0.08250730484724045,-0.15470574796199799,0.21232284605503082,-0.10558851063251495,-0.15822988748550415,0.06713950634002686,0.10702528804540634,-0.049667999148368835,0.03404933586716652,0.07211416959762573,0.168206125497818,0.15417426824569702,0.14338889718055725,0.02679913118481636,0.08056500554084778,0.06297025829553604,-0.020294563844799995,0.0004956394550390542,-0.026641476899385452,-0.05227747559547424,-0.008458556607365608,0.226969376206398,-0.3191050589084625,0.012140549719333649,-0.21504707634449005,-0.13878969848155975,-0.024785451591014862,-0.07873398065567017,-0.05876535922288895,0.0355197936296463,-0.19932779669761658,-0.19333112239837646,0.1109514981508255,0.22552001476287842,0.31578612327575684,0.09468761086463928,-0.14226707816123962,0.45390385389328003,0.07403390109539032,0.15184377133846283,0.3223908245563507,0.10551512986421585,0.040204595774412155,-0.13959071040153503,-0.08535122126340866,0.12140505015850067,-0.08046352118253708,-0.026644371449947357,1.036109447479248,-0.09244272112846375,0.17983414232730865,-0.12430409342050552,0.2368914783000946,0.039614975452423096,0.028979511931538582,0.11092682927846909,0.3078412711620331,-0.017839619889855385,0.12909860908985138,-0.06093844026327133,0.0032321405597031116,-0.2055027335882187,0.1625892072916031,-0.26084044575691223,0.028063571080565453,-0.03049194999039173,-0.12533308565616608,0.21424709260463715,0.03598656505346298,-0.7655172944068909,-0.22616524994373322,0.04622596874833107,-0.10601186007261276,0.039136312901973724,0.008720748126506805,0.017288846895098686,-0.1859118640422821,0.03127344697713852,0.06287788599729538,0.21059995889663696,-0.07053202390670776,-0.013242269866168499,-0.08432997018098831,-0.020972121506929398,-0.2870141565799713,0.10278011113405228,-0.12977561354637146,0.08145591616630554,0.13003277778625488,0.03577844053506851,0.08391298353672028,0.025854598730802536,0.21987579762935638,-0.7232790589332581,0.012235039845108986,-0.16807687282562256,0.0639737918972969,-0.15777841210365295,-0.13576194643974304,-0.008232447318732738,-0.16081999242305756,-0.1575494259595871,-0.15566565096378326,0.3148098886013031,-0.10535434633493423,0.12689454853534698,0.04909953474998474,0.1564731001853943,0.024499354884028435,0.0761108323931694,0.7665919661521912,-0.0650995522737503,-0.0246426984667778,0.2513577342033386,0.04378440976142883,0.15630397200584412,0.11346128582954407,0.09494904428720474,0.0032018336933106184,-0.051908086985349655,-0.07749464362859726,0.017095858231186867,-0.05745847150683403,-0.2688881754875183,-0.28502365946769714,0.007362780161201954,0.08574990183115005,-0.011068694293498993,-0.019845983013510704,-0.5504719018936157,-0.026869578287005424,-0.24353715777397156,-0.07972009479999542,0.17731204628944397,0.2580692172050476,0.037674497812986374,0.14708808064460754,0.10671764612197876,0.0038499212823808193,0.37390071153640747,-0.01351807452738285,0.2338504046201706,0.04145104065537453,0.020348582416772842,0.0005947550525888801,0.24549980461597443,-0.04016789048910141,-0.2674122750759125,0.17227958142757416,-0.12520155310630798,0.1078849509358406,0.01896311342716217,0.07075847685337067,-0.035230107605457306,-0.012539159506559372,-0.002572257537394762,-0.010153617709875107,0.06374070048332214,-1.1447079181671143,0.1852177083492279,0.12304084748029709,-0.03247430920600891,0.12607909739017487,-0.09608358144760132,-0.11101916432380676,0.25529780983924866,0.07149503380060196,0.047608356922864914,-0.06299708783626556,-0.03708474338054657,-0.06824943423271179,-0.03159267082810402,0.04744312912225723,-0.06370286643505096,0.1512104719877243,0.07278542220592499,0.04265321418642998,0.10852417349815369,0.020734116435050964,0.289013147354126,0.0839955061674118,-0.1026996448636055,-0.03112400509417057,-0.04722629860043526,0.01309420820325613,0.3427242934703827,0.0880560427904129,0.06749770045280457,0.04163752496242523,-0.24456411600112915,-0.35397374629974365,-0.0556785874068737,0.22432656586170197,0.15716105699539185,0.04720064625144005,0.0435052365064621,0.12945006787776947,0.06541724503040314,-0.35876163840293884,0.2257402390241623,0.09220457822084427,-0.055482201278209686,0.4026951491832733,0.1652154177427292,-0.14721985161304474,0.0855029970407486,0.06137590482831001,-0.1416769176721573,-0.08900453895330429,-0.056480664759874344,-0.02685333415865898,-0.08918504416942596,0.04162440821528435,0.026777036488056183,-0.002145389560610056,-0.054334815591573715,-0.18080799281597137,-0.04610242322087288,0.2162197083234787,-0.2652507722377777,-0.017030347138643265,0.25141191482543945,-0.11731556057929993,-0.5200819969177246,-0.13458912074565887,0.030761754140257835,-0.026221446692943573,0.08363964408636093,0.23757000267505646,0.08535491675138474,-0.03055093251168728,0.09433289617300034,-0.3110407888889313,0.11595821380615234,-0.01086753886193037,0.10866039246320724,0.05512460693717003,-0.21392352879047394,0.003567705862224102,-0.2941812574863434,-0.1740507334470749,0.16357509791851044,0.011108944192528725,0.05138836428523064,0.0073468065820634365,0.048978112637996674,-0.03445379063487053,0.039777547121047974,-0.20298358798027039,-0.19336660206317902,0.11887571215629578,0.04426421970129013,0.12714441120624542,0.00016669392061885446,0.09319648146629333,0.02454211935400963,-0.07549218833446503,0.0031060567125678062,0.013584217987954617,0.25544002652168274,0.099543496966362,0.15031658113002777,0.05327910929918289,0.0642443597316742,0.17707008123397827,0.09283475577831268,-0.17054231464862823,0.035592831671237946,-0.004949280992150307,0.08419711142778397,-0.035104501992464066,0.04045293852686882,0.04484852775931358,-0.10560564696788788,-0.06103488802909851,0.030470160767436028,2.1058623790740967,0.30930066108703613,-0.012036234140396118,0.019611885771155357,0.20134781301021576,0.04823062941431999,0.014750011265277863,0.16362647712230682,-0.09723985940217972,0.15109646320343018,0.008706947788596153,0.07915142178535461,-0.0781109556555748,0.1583608090877533,0.2742469906806946,0.19499540328979492,-0.0250791534781456,-0.2295830398797989,-0.29140251874923706,-0.041054729372262955,-0.3240761160850525,0.2664215564727783,0.18619880080223083,0.00140249019023031,-0.04238290712237358,0.14082716405391693,0.03272031620144844,-0.14971445500850677,0.0723666325211525,0.020546002313494682,-0.02378065139055252,0.07763369381427765,0.12844321131706238,0.26997169852256775,-0.1359596848487854,0.026455311104655266,0.049627069383859634,-0.2695510685443878,-0.12677393853664398,0.0027196835726499557,0.03435700759291649,-0.23079122602939606,0.25986647605895996,0.0028648260049521923,0.0729953795671463,0.2806662619113922,-0.01611446589231491,-0.23341608047485352,0.1591833233833313,0.14571058750152588,-0.04548339545726776,-0.08429970592260361,-0.1096850037574768,0.10900139063596725,-0.058306850492954254,-0.12665601074695587,0.082807756960392,-0.01908888667821884,-0.02506685070693493,0.24432408809661865,0.034435439854860306,0.15669484436511993,0.18815042078495026,-0.07575635612010956,0.17378106713294983,0.0636829063296318,-0.21659249067306519,0.1736709028482437,0.02018255554139614,0.01981036365032196,0.006308312527835369,0.11827714741230011,0.13523301482200623,0.1335120052099228,0.0908355712890625,-0.07129302620887756,0.23341940343379974,0.01972062885761261,-0.07504460215568542,-2.9179773330688477,0.12200187891721725,0.04909577965736389,0.08215788006782532,0.005213775672018528,0.2569108307361603,0.16473370790481567,-0.09239713847637177,0.058730755001306534,-0.13598094880580902,0.12214833498001099,0.2244575470685959,0.20816190540790558,0.08770417422056198,0.14301811158657074,0.11498672515153885,0.04631611332297325,-0.10114724189043045,-0.022207779809832573,-0.08585592359304428,-0.05340095981955528,0.03966720029711723,-0.10421770811080933,-0.15458208322525024,-0.27811047434806824,0.10802913457155228,-0.15704980492591858,-0.17730605602264404,0.053473249077796936,0.03652788698673248,-0.11047011613845825,0.2031809389591217,-0.013081418350338936,0.09193339198827744,-0.002575958613306284,-0.19571727514266968,-0.06310785561800003,-0.04194940626621246,0.031737908720970154,0.12875200808048248,-0.09316171705722809,0.30906879901885986,-0.040757015347480774,0.07527203857898712,-0.11652937531471252,0.04306299611926079,0.24847082793712616,-0.2008400410413742,0.172797292470932,-0.239567831158638,-0.045616064220666885,0.14973758161067963,0.10213763266801834,-0.028922006487846375,0.18046465516090393,0.09959448128938675,0.1153825968503952,0.06955992430448532,-0.040209654718637466,-0.18156380951404572,-0.0035628732293844223,0.052699219435453415,0.017399050295352936,0.05758439004421234,0.22854027152061462,-0.05865741893649101,-0.13098004460334778,-0.04681267589330673,-0.020485389977693558,-0.048411399126052856,-0.09899385273456573,-0.06113921105861664,0.13139033317565918,0.0934886708855629,0.08135052025318146,-0.06159362196922302,0.22791637480258942,0.16910821199417114,0.06679776310920715,0.14183713495731354,0.016070181503891945,-0.24357831478118896,0.016724655404686928,-0.013850830495357513,0.18622076511383057,-7.751628398895264,-0.22719816863536835,-0.13246017694473267,-0.09959235787391663,-0.029895247891545296,-0.1266791671514511,0.12110253423452377,-0.07171563804149628,0.08790174126625061,-0.09087083488702774,0.15578927099704742,-0.07257058471441269,-0.051577139645814896,-0.11803823709487915,0.17040863633155823,0.27968063950538635
user843,-0.19043688476085663,-0.05542458966374397,0.02017972432076931,-0.1580500304698944,-0.051144178956747055,-0.07880507409572601,0.18197357654571533,0.301228791475296,-0.19089119136333466,-0.23736192286014557,0.011011582799255848,-0.07693766057491302,-0.06234506145119667,0.25975385308265686,0.056033696979284286,0.08591020852327347,-0.11480522155761719,0.20511102676391602,0.18878455460071564,-0.14002753794193268,-0.039540231227874756,-0.24459922313690186,-0.024833833798766136,-0.08541302382946014,-0.04124818742275238,-0.004134444985538721,-0.06536363810300827,-0.028050927445292473,0.09913425147533417,0.0455472432076931,-0.003595951711758971,0.042956799268722534,-0.027617275714874268,-0.01016394142061472,-0.0010412714909762144,-0.016239415854215622,0.06844878941774368,-0.0678093209862709,0.0481133796274662,0.05145218223333359,-0.023653505370020866,-0.03333742544054985,0.12948958575725555,-0.0629386454820633,-0.01384106744080782,-0.07843779772520065,-1.997197151184082,0.01594105176627636,-0.14429275691509247,-0.1753920018672943,0.1619492918252945,-0.009687982499599457,0.1507956087589264,0.21045216917991638,0.17010779678821564,0.24156998097896576,-0.08050816506147385,0.3817899823188782,0.05990619212388992,-0.015077768824994564,0.11512432247400284,0.016484931111335754,-0.04056711494922638,0.044345688074827194,-0.05113224685192108,0.051053211092948914,-0.014516984112560749,0.16684108972549438,-0.21294566988945007,0.3328832685947418,-0.15520396828651428,-0.08778133988380432,0.21196502447128296,0.011173537001013756,0.06498608738183975,-0.08583274483680725,0.015438603237271309,0.10092023015022278,-0.025524983182549477,0.018079841509461403,0.019713133573532104,0.12312039732933044,0.20593465864658356,0.13502788543701172,-0.03496117889881134,0.14310680329799652,-0.14663010835647583,-0.1404503881931305,0.13451915979385376,0.3610372841358185,-0.19036205112934113,-0.026677029207348824,0.120363749563694,0.20297497510910034,0.2388841211795807,-0.2316489815711975,-0.021779008209705353,-0.0077163223177194595,0.30771613121032715,0.16393575072288513,-0.0043651568703353405,-0.04350215941667557,0.03360719606280327,-0.23111362755298615,-0.03954121842980385,-0.07344494014978409,-0.04522907733917236,-0.13119643926620483,-0.04930330440402031,-2.503521203994751,0.14884044229984283,0.16677406430244446,-0.08168669790029526,-0.20746715366840363,-0.031201167032122612,0.263681560754776,0.21625936031341553,0.0723128542304039,-0.006467808969318867,-0.029912656173110008,-0.12663677334785461,0.4554321765899658,0.08375442773103714,-0.10938271880149841,0.09456270188093185,0.19207172095775604,0.005033249035477638,-0.061750784516334534,0.09822967648506165,0.10460503399372101,0.13534347712993622,0.2974448502063751,-0.10914907604455948,-0.03654658421874046,-0.10127925127744675,0.07717495411634445,0.21204204857349396,-0.044205788522958755,-0.07439979165792465,0.02279057539999485,-0.27871888875961304,-0.03786681964993477,-2.931072950363159,0.23626349866390228,0.30478033423423767,-0.0573323629796505,-0.08596157282590866,0.00037194445030763745,0.015341660939157009,0.1654721051454544,0.09975221008062363,0.0810975432395935,-0.10103008896112442,0.0525137297809124,-0.207534521818161,0.0718066543340683,-0.0750625729560852,-0.0219176784157753,0.16223661601543427,0.1750522404909134,0.04760752245783806,-0.0810752585530281,-0.033609434962272644,-0.10573577135801315,-0.08065012842416763,0.035565171390771866,0.14946292340755463,0.10578612983226776,0.06016144901514053,-0.010347152128815651,-0.09915778040885925,-0.06950292736291885,0.19427116215229034,-0.04568515345454216,0.1789427399635315,0.016140982508659363,0.0992317646741867,0.21145270764827728,-0.05004866048693657,-0.008906669914722443,-0.13191884756088257,0.24917609989643097,0.06314520537853241,0.1040678396821022,0.015316545031964779,0.010953779332339764,0.16184024512767792,-0.12523189187049866,0.1106322780251503,0.21813718974590302,-0.08993692696094513,-0.06622348725795746,0.15417982637882233,0.060522910207509995,0.15031608939170837,-0.0124724842607975,0.02650616317987442,-0.3865949213504791,0.18339227139949799,0.06695658713579178,-0.15979161858558655,-0.08910040557384491,-0.029575256630778313,0.07378055155277252,-0.15748685598373413,3.5175538063049316,0.007398473564535379,-0.053661685436964035,0.06490865349769592,0.08705754578113556,0.028342988342046738,0.06908722221851349,-0.019272569566965103,-0.12451808899641037,0.20313306152820587,-0.04691483825445175,0.1815687119960785,-0.009415640495717525,0.011254259385168552,-0.038138248026371,0.13776957988739014,0.18037474155426025,0.05191361531615257,0.11057163029909134,-0.16715292632579803,0.20048664510250092,0.11896736919879913,0.08043460547924042,0.032220035791397095,-1.040509581565857,0.04159500077366829,-0.10423765331506729,-0.07984098792076111,0.22695867717266083,-0.13600091636180878,-0.040707364678382874,0.053979381918907166,-0.00478660874068737,0.16360414028167725,0.06200198084115982,-0.09989312291145325,0.07037855684757233,0.2328699231147766,0.21990126371383667,-0.19864791631698608,0.23852790892124176,0.16528163850307465,0.055029239505529404,0.006971549242734909,-0.05731092393398285,0.16714775562286377,-0.1752762645483017,-0.03973422944545746,-0.1131681501865387,0.018163444474339485,-0.08064106851816177,0.0748261958360672,-0.006467453669756651,-0.20802919566631317,-0.03231241926550865,-0.18559013307094574,-0.06875742226839066,0.21493344008922577,-0.015490888617932796,-0.15165920555591583,-0.08686689287424088,0.005635252222418785,-0.20810925960540771,0.18761368095874786,-0.05737088993191719,-0.08618198335170746,0.08366309106349945,-0.20108933746814728,-3.995255708694458,-0.039934735745191574,-0.06760872900485992,0.27719244360923767,0.1823740005493164,-0.054156526923179626,0.01344961766153574,0.04814748466014862,0.21486252546310425,-0.18370245397090912,0.3052888810634613,0.18246963620185852,0.010030113160610199,0.15319369733333588,-0.316292941570282,0.13635827600955963,0.07970058172941208,-0.09810900688171387,0.01745074801146984,-0.05029855668544769,0.04757172614336014,0.2608943581581116,-0.12179777026176453,0.019340917468070984,-0.018547512590885162,-0.1375185251235962,-0.1537601351737976,-0.19626635313034058,0.07295907288789749,-0.12235681712627411,-0.04000912234187126,-0.10188687592744827,0.14226514101028442,-0.060515619814395905,-0.16669857501983643,-2.506495714187622,-0.09064281731843948,-0.13063974678516388,-0.12079773843288422,0.09897229075431824,-0.13044199347496033,0.20398958027362823,-0.12529116868972778,-0.1873198002576828,0.06942853331565857,0.12086103111505508,-0.03013860434293747,0.03437536582350731,0.09592454135417938,0.22003963589668274,0.06940726935863495,0.08688861131668091,-0.02032402530312538,0.0676545724272728,0.08426367491483688,0.007159279193729162,0.00379212386906147,-0.0514066219329834,-0.042392149567604065,-0.026788918301463127,0.21516665816307068,-0.3086491525173187,0.021012790501117706,-0.24655403196811676,-0.11185149848461151,-0.031373076140880585,-0.06707148998975754,-0.03628280758857727,0.017676418647170067,-0.17494171857833862,-0.17841511964797974,0.08183857798576355,0.21067863702774048,0.3211066722869873,0.11960778385400772,-0.14888699352741241,0.4426490366458893,0.05486546456813812,0.17183269560337067,0.2827253043651581,0.12326304614543915,0.04388928413391113,-0.17946270108222961,-0.09664049744606018,0.1257595419883728,-0.06738675385713577,0.015639029443264008,1.026466727256775,-0.08984718471765518,0.18519993126392365,-0.1198759526014328,0.2592048943042755,0.02931477315723896,0.03638568893074989,0.051432572305202484,0.3030833303928375,-0.020640907809138298,0.15328744053840637,0.002833826467394829,-0.001176428166218102,-0.184987410902977,0.14018377661705017,-0.24336841702461243,0.026467520743608475,-0.037611961364746094,-0.07490913569927216,0.1863112896680832,0.0013721355935558677,-0.7546012997627258,-0.1943182498216629,0.12336909025907516,-0.11558903008699417,0.027578575536608696,0.04527047276496887,0.005469976458698511,-0.1876462697982788,0.022477127611637115,0.0758691355586052,0.2154928743839264,-0.06032183766365051,-0.03597278892993927,-0.08982530236244202,-0.022058852016925812,-0.2772716283798218,0.12622588872909546,-0.12839731574058533,0.11535897105932236,0.11715251207351685,0.025266798213124275,0.10850740224123001,0.06157146021723747,0.21294809877872467,-0.6965243816375732,0.044141724705696106,-0.1685124635696411,0.05192407965660095,-0.16625095903873444,-0.1274900585412979,0.06493432819843292,-0.14475561678409576,-0.16948100924491882,-0.14247293770313263,0.3308579921722412,-0.07254794239997864,0.1281895488500595,0.059551727026700974,0.17524269223213196,0.05452011525630951,0.08547160029411316,0.7634696960449219,-0.068502277135849,-0.02257477305829525,0.2570108473300934,-0.007482646033167839,0.1682073026895523,0.147771954536438,0.0873667299747467,-0.016190743073821068,0.006166199222207069,-0.07672802358865738,0.01074402779340744,-0.026206405833363533,-0.2435193657875061,-0.3128657042980194,0.049332600086927414,0.10128771513700485,-0.021998832002282143,-0.02244163304567337,-0.5692523121833801,-0.02637414261698723,-0.2223413586616516,-0.11000034958124161,0.13962647318840027,0.20104047656059265,0.04611003026366234,0.1735314428806305,0.0868082046508789,0.021172750741243362,0.35586243867874146,-0.04889936000108719,0.23989230394363403,0.03622964769601822,0.051049213856458664,-0.01003364659845829,0.24443185329437256,-0.01520918682217598,-0.20876266062259674,0.18711763620376587,-0.1336083710193634,0.09785545617341995,0.013556280173361301,0.06284595280885696,-0.08003029972314835,-0.025568172335624695,0.058423448354005814,-0.011342618614435196,0.0843372642993927,-1.1589652299880981,0.16424542665481567,0.15515118837356567,-0.03401909023523331,0.10522554069757462,-0.1256672888994217,-0.1027877926826477,0.24295581877231598,0.10316833853721619,0.03864974156022072,-0.07999812811613083,-0.01978997141122818,-0.10752502083778381,-0.00796831026673317,0.002062356099486351,-0.06565050035715103,0.15013670921325684,0.03749990835785866,0.052418287843465805,0.1315935105085373,0.018588392063975334,0.23554442822933197,0.08171374350786209,-0.11141488701105118,-0.052131567150354385,-0.04930088669061661,-0.01240170281380415,0.33737170696258545,0.10825025290250778,0.037762485444545746,0.04896517097949982,-0.2382393628358841,-0.3797261416912079,-0.01108261477202177,0.19512873888015747,0.15463252365589142,0.04278966411948204,0.042033568024635315,0.11661025881767273,0.00027348712319508195,-0.37800729274749756,0.20130717754364014,0.11210455000400543,-0.1010402962565422,0.4078294038772583,0.14681623876094818,-0.15394632518291473,0.09417520463466644,0.052622709423303604,-0.1547972708940506,-0.08942634612321854,-0.024583442136645317,-0.009066670201718807,-0.09817007184028625,0.03519921749830246,0.042597588151693344,-0.007847554981708527,-0.061093300580978394,-0.12164943665266037,-0.07928042858839035,0.19512155652046204,-0.26178377866744995,-0.023418359458446503,0.24677227437496185,-0.14875805377960205,-0.4759698510169983,-0.11874222010374069,0.02068161964416504,0.005820360034704208,0.05589717999100685,0.24368590116500854,0.0538766048848629,-0.05812723934650421,0.09726043790578842,-0.28600114583969116,0.12853243947029114,0.0052077556028962135,0.11304547637701035,0.1260378509759903,-0.20121188461780548,-0.01621098816394806,-0.26353850960731506,-0.16583728790283203,0.16339744627475739,0.014791066758334637,0.04119445011019707,0.04711507260799408,0.06380655616521835,-0.05254886671900749,0.026553863659501076,-0.1858939528465271,-0.19881513714790344,0.098265640437603,0.09448216110467911,0.08170440047979355,0.019306065514683723,0.10366037487983704,-0.012499043717980385,-0.0737224817276001,0.01822648011147976,-0.003972222097218037,0.23557601869106293,0.09055404365062714,0.14256983995437622,0.02718968689441681,0.08786320686340332,0.19077543914318085,0.12128850817680359,-0.1540105789899826,0.0587175190448761,-0.0026019043289124966,0.07157990336418152,-0.04134732112288475,0.04802245274186134,0.024610647931694984,-0.10962436348199844,-0.05416731908917427,-0.02639518491923809,2.134549617767334,0.29928499460220337,-0.012872346676886082,0.013464013114571571,0.16403813660144806,0.05539393052458763,-0.005924867000430822,0.12162267416715622,-0.10700230300426483,0.13263213634490967,0.036104947328567505,0.055263910442590714,-0.09919394552707672,0.15734127163887024,0.2998615503311157,0.17860138416290283,-0.01688447780907154,-0.199425607919693,-0.28082096576690674,-0.022453198209404945,-0.32252824306488037,0.26279833912849426,0.1750544160604477,-0.020049752667546272,-0.04504812881350517,0.1087704673409462,0.050107404589653015,-0.13350529968738556,0.06700024753808975,0.05437891185283661,-0.03493651747703552,0.05830838531255722,0.07758951932191849,0.26208052039146423,-0.11764659732580185,0.06666940450668335,0.06534342467784882,-0.27523839473724365,-0.11141718924045563,0.05091986805200577,0.01965395361185074,-0.20604699850082397,0.2781119644641876,0.0006762237171642482,0.05140948295593262,0.2751246392726898,-0.026644576340913773,-0.17838990688323975,0.17040209472179413,0.19858862459659576,-0.06328903883695602,-0.05690174922347069,-0.12122417241334915,0.12092919647693634,-0.03462452068924904,-0.12106155604124069,0.09479724615812302,-0.04833221435546875,-0.04789471626281738,0.258736789226532,0.019786329939961433,0.15123111009597778,0.21673431992530823,-0.04872501268982887,0.17822693288326263,0.009998939000070095,-0.21888616681098938,0.1163947656750679,0.031985312700271606,-0.021238131448626518,0.0021283270325511694,0.09530213475227356,0.16695129871368408,0.07964971661567688,0.1043255627155304,-0.0663432702422142,0.2593860924243927,-0.02716360241174698,-0.09938504546880722,-2.9378273487091064,0.0847126841545105,0.019088197499513626,0.08098545670509338,0.020242802798748016,0.24799557030200958,0.17239168286323547,-0.10792442411184311,0.03571828454732895,-0.133884996175766,0.1465151607990265,0.245571568608284,0.22543616592884064,0.11097978800535202,0.1588357388973236,0.10826464742422104,0.06852200627326965,-0.09860195964574814,-0.017386145889759064,-0.06049678474664688,-0.06337446719408035,0.024343611672520638,-0.07601501047611237,-0.1676519215106964,-0.2420017272233963,0.13038909435272217,-0.15142466127872467,-0.12251963466405869,0.036851104348897934,-0.005152469500899315,-0.10743794590234756,0.21549278497695923,-0.031072651967406273,0.0920601487159729,-0.021139860153198242,-0.19892486929893494,-0.032224010676145554,-0.0245579332113266,0.019663356244564056,0.09491220116615295,-0.06725404411554337,0.3044743835926056,-0.028713930398225784,0.05828161537647247,-0.09236639738082886,0.024589987471699715,0.24330048263072968,-0.18890498578548431,0.14273518323898315,-0.20596496760845184,-0.02816011942923069,0.15064966678619385,0.07712359726428986,-0.004947743844240904,0.20291410386562347,0.09360087662935257,0.1045883372426033,0.025345124304294586,-0.03884527459740639,-0.19584780931472778,-0.018613852560520172,0.07449168711900711,0.032800156623125076,0.04943893849849701,0.21464163064956665,-0.057363443076610565,-0.14245103299617767,-0.07251790165901184,-0.004098682198673487,-0.02018263190984726,-0.08117171376943588,-0.06142551824450493,0.1659378856420517,0.09901934862136841,0.09497515857219696,-0.05620806664228439,0.20366016030311584,0.16726359724998474,0.025974387302994728,0.1608605831861496,0.019630827009677887,-0.190092071890831,0.0417819581925869,-0.06024375557899475,0.1774173527956009,-7.787985324859619,-0.2115204930305481,-0.11566832661628723,-0.10179847478866577,-0.00044121392420493066,-0.13481077551841736,0.07463011145591736,-0.0996418371796608,0.06449365615844727,-0.07961926609277725,0.17242418229579926,-0.09043706208467484,-0.06631078571081161,-0.10625792294740677,0.19202806055545807,0.25917521119117737
user314,-0.16833174228668213,-0.023988550528883934,0.028809823095798492,-0.15689726173877716,-0.034894995391368866,-0.0682419091463089,0.13268578052520752,0.2710147202014923,-0.19780820608139038,-0.2039363831281662,0.0060703810304403305,-0.03362101688981056,-0.09580737352371216,0.24136489629745483,0.06416717916727066,0.09413140267133713,-0.10301341861486435,0.16699278354644775,0.1582425832748413,-0.15707111358642578,-0.05924058333039284,-0.20043259859085083,-0.046191953122615814,-0.07988223433494568,-0.031842004507780075,-0.023000327870249748,-0.07512721419334412,-0.01902608945965767,0.07303781807422638,0.05349358171224594,0.026540007442235947,0.026893742382526398,-0.05470189452171326,0.03315627947449684,-0.014399763196706772,0.011380081996321678,0.07681021839380264,-0.03388279303908348,0.09096384793519974,0.027948353439569473,-0.001774078351445496,-0.044170498847961426,0.11660423874855042,-0.04085347801446915,-0.022184617817401886,-0.07580354809761047,-1.8364567756652832,-0.02049003541469574,-0.13338640332221985,-0.1679847091436386,0.14926034212112427,0.032554857432842255,0.17486783862113953,0.18188190460205078,0.12450112402439117,0.1913515031337738,-0.12197408825159073,0.37345263361930847,0.032370664179325104,-0.047158755362033844,0.14690469205379486,0.026896577328443527,0.006981267128139734,0.020555689930915833,-0.04646671935915947,0.061326298862695694,-0.026120230555534363,0.10075724869966507,-0.20546673238277435,0.33496329188346863,-0.1307695060968399,-0.0886077806353569,0.2037336379289627,0.017623906955122948,0.07042273133993149,-0.061890412122011185,0.011662482284009457,0.08234471082687378,-0.02580796740949154,0.028305910527706146,-7.918533083284274e-05,0.07811467349529266,0.16129444539546967,0.10426416248083115,-0.05442848801612854,0.11844522505998611,-0.08276785910129547,-0.08632146567106247,0.1411106288433075,0.3393900692462921,-0.17399172484874725,-0.009796609170734882,0.09477010369300842,0.19262975454330444,0.20508092641830444,-0.1906661093235016,0.05713529884815216,-0.0157490074634552,0.2877867817878723,0.12973718345165253,-0.04003015160560608,-0.06691674143075943,0.020186327397823334,-0.18699857592582703,-0.06026894971728325,-0.09196760505437851,-0.003792671486735344,-0.06829278916120529,-0.045694492757320404,-2.5866539478302,0.15191322565078735,0.11140118539333344,-0.09782718867063522,-0.1901334971189499,-0.013086679391562939,0.24594999849796295,0.2267245054244995,0.06644883006811142,-0.019035635516047478,-0.04732278361916542,-0.16783678531646729,0.48626813292503357,0.06760372966527939,-0.11110819876194,0.10320163518190384,0.1256188303232193,0.007279498968273401,-0.04049775004386902,0.05320903658866882,0.08846792578697205,0.11045011878013611,0.24136391282081604,-0.10724282264709473,-0.02685736119747162,-0.09880836308002472,-0.01531349029392004,0.1894741952419281,-0.05084032565355301,-0.048893388360738754,0.02064201794564724,-0.25334230065345764,-0.012732093222439289,-2.962123155593872,0.2607550621032715,0.25176024436950684,-0.09040720760822296,-0.10370883345603943,0.001606846577487886,0.05624401196837425,0.1583196371793747,0.07888621091842651,0.1038438230752945,-0.05405919626355171,0.09572923928499222,-0.2143561691045761,0.06317038089036942,-0.05573180317878723,-0.02987799234688282,0.16162921488285065,0.16208501160144806,0.025844687595963478,-0.0645524337887764,-0.012190179899334908,-0.11631980538368225,-0.08221302181482315,0.009321469813585281,0.12280654162168503,0.12357202172279358,0.0816180408000946,0.02960970439016819,-0.09254766255617142,-0.0832090824842453,0.1092732697725296,-0.03223460540175438,0.16332529485225677,-0.0018350343452766538,0.08253853768110275,0.23117095232009888,-0.05106338858604431,0.007458077277988195,-0.0511380210518837,0.2393205761909485,0.057309340685606,0.1202009841799736,0.002089374465867877,0.003498583333566785,0.17879922688007355,-0.10475475341081619,0.12283208221197128,0.18949119746685028,-0.018070928752422333,-0.06286387145519257,0.12784422934055328,0.08441391587257385,0.13891202211380005,-0.011906311847269535,0.023910153657197952,-0.3597862124443054,0.17883259057998657,0.07256342470645905,-0.17210808396339417,-0.09571773558855057,-0.01850649155676365,0.04544501006603241,-0.12274729460477829,3.4986209869384766,0.018319983035326004,-0.043867286294698715,0.10786420851945877,0.076359823346138,0.05476527288556099,0.08046279847621918,0.012396016158163548,-0.16147996485233307,0.20479050278663635,-0.039755724370479584,0.14553691446781158,0.04204346239566803,0.022601665928959846,-0.023018086329102516,0.11083786189556122,0.19095748662948608,0.09374396502971649,0.13405069708824158,-0.13866810500621796,0.166105255484581,0.13712908327579498,0.04809074103832245,-0.023668207228183746,-0.9682525396347046,0.05331529676914215,-0.09049103409051895,-0.07534751296043396,0.22048348188400269,-0.1367209404706955,-0.04607956483960152,0.08170142024755478,0.006194988265633583,0.1282828152179718,0.05527974292635918,-0.07764510810375214,0.04949859157204628,0.20202846825122833,0.2085234522819519,-0.2125261127948761,0.2180512398481369,0.12025962769985199,0.030635179951786995,-0.03617468476295471,-0.030213911086320877,0.12206421047449112,-0.1663353145122528,-0.040825627744197845,-0.09675541520118713,-0.007021570112556219,-0.09389258176088333,0.0677056610584259,0.014916894026100636,-0.12719875574111938,-0.05129595100879669,-0.21968591213226318,-0.08060744404792786,0.17792581021785736,-0.014973550103604794,-0.11697231978178024,-0.09181943535804749,0.013000035658478737,-0.1668715924024582,0.17254331707954407,-0.02386666089296341,-0.04482940211892128,0.11357548087835312,-0.19436043500900269,-4.177272796630859,-0.009449675679206848,-0.031031258404254913,0.25570887327194214,0.21176746487617493,-0.07316131889820099,0.030882053077220917,0.058545708656311035,0.15457722544670105,-0.13531999289989471,0.278757244348526,0.18117527663707733,-0.008355002850294113,0.18618789315223694,-0.3325590491294861,0.14155776798725128,0.046371884644031525,-0.08794330805540085,0.0282849483191967,-0.028079431504011154,0.029603399336338043,0.252310186624527,-0.11386269330978394,0.012087216600775719,-0.02784566394984722,-0.13574406504631042,-0.13855336606502533,-0.13925288617610931,0.07755927741527557,-0.1313822865486145,-0.049367424100637436,-0.05253494158387184,0.11484789848327637,-0.041237883269786835,-0.09709739685058594,-2.404623031616211,-0.09804341197013855,-0.12245069444179535,-0.10159217566251755,0.11201652884483337,-0.13938084244728088,0.20032519102096558,-0.13490048050880432,-0.16039863228797913,0.06374388188123703,0.0943693071603775,0.008963263593614101,-0.009157543070614338,0.12487529963254929,0.24400892853736877,0.06012895703315735,0.03513019159436226,0.023066341876983643,0.03418966382741928,0.08603180199861526,0.018970124423503876,-0.00021347503934521228,-0.05943141132593155,-0.0014381175860762596,-0.042838335037231445,0.21652930974960327,-0.30237284302711487,-0.0030493310187011957,-0.25790345668792725,-0.07229792326688766,-0.06636815518140793,-0.04528750106692314,-0.05922943726181984,0.00036459238617680967,-0.1526229977607727,-0.15386003255844116,0.06887292861938477,0.22381240129470825,0.2749314308166504,0.14160536229610443,-0.16755510866641998,0.43684670329093933,0.04904251918196678,0.18993733823299408,0.16522231698036194,0.13116350769996643,0.0025517824105918407,-0.21715745329856873,-0.08798705041408539,0.12886463105678558,-0.10449133068323135,0.0203436017036438,1.011115312576294,-0.07636227458715439,0.19769687950611115,-0.0914168655872345,0.24951231479644775,-0.0033564469777047634,0.08301717042922974,0.0483420193195343,0.23454514145851135,0.0062179104425013065,0.15332812070846558,-0.007105999626219273,-0.029447041451931,-0.14451724290847778,0.13656866550445557,-0.20945605635643005,0.0517316535115242,-0.05268194153904915,-0.04866074398159981,0.1684807389974594,0.015675922855734825,-0.67258620262146,-0.18734543025493622,0.09262795746326447,-0.14288167655467987,0.06166151538491249,0.10028078407049179,0.015270105563104153,-0.1645951122045517,0.046996697783470154,0.11482920497655869,0.18630379438400269,-0.013232192024588585,0.00280581321567297,-0.057337891310453415,-0.010025793686509132,-0.23057407140731812,0.12827584147453308,-0.09632027894258499,0.1267268806695938,0.08118097484111786,0.018310710787773132,0.13675850629806519,0.013426500372588634,0.15206730365753174,-0.6706364154815674,0.019260069355368614,-0.1678512990474701,0.045718129724264145,-0.14129126071929932,-0.15168029069900513,0.054830942302942276,-0.1117011234164238,-0.14814265072345734,-0.11053416132926941,0.33014804124832153,-0.060443226248025894,0.13368231058120728,0.11344273388385773,0.18841254711151123,0.051099952310323715,0.05976551026105881,0.7507417798042297,-0.06139522045850754,-0.03465013578534126,0.2120075821876526,-0.02311095967888832,0.15611405670642853,0.12748533487319946,0.08416066318750381,0.004846016876399517,-0.04019743949174881,-0.11032024025917053,-0.0038238978013396263,-0.035115908831357956,-0.2619885206222534,-0.30316731333732605,0.04227983579039574,0.1152123361825943,-0.01790413074195385,0.028064299374818802,-0.546790361404419,-0.032094866037368774,-0.17501531541347504,-0.13220474123954773,0.18005813658237457,0.17847082018852234,0.02035585790872574,0.1309700757265091,0.10035214573144913,0.01686590351164341,0.38736388087272644,-0.01609889417886734,0.1853034943342209,0.000941855541896075,0.05876641720533371,0.0001467242109356448,0.20762667059898376,0.023679085075855255,-0.22592365741729736,0.1867048293352127,-0.07179930806159973,0.04207661747932434,0.011275816708803177,0.09442609548568726,-0.039435915648937225,-0.01566256955265999,0.10382019728422165,-0.001754118362441659,0.07564029097557068,-1.1164734363555908,0.1757882535457611,0.1732954978942871,-0.039066437631845474,0.07803511619567871,-0.10363517701625824,-0.09815523028373718,0.25673481822013855,0.08800658583641052,0.020628368481993675,-0.07878129184246063,0.018269702792167664,-0.10490407794713974,-0.04825401306152344,0.006247194018214941,-0.04584233835339546,0.1787642538547516,0.04261931777000427,0.0590834841132164,0.12233199179172516,0.0522734634578228,0.197737917304039,0.05562705919146538,-0.10984283685684204,-0.029831010848283768,-0.08969957381486893,-0.05982453376054764,0.3392731845378876,0.12943537533283234,-0.01582389511168003,0.08538521826267242,-0.1713697612285614,-0.298541784286499,0.024275651201605797,0.1791524440050125,0.11218506097793579,0.03891259804368019,0.054725103080272675,0.07878527045249939,-0.010018930770456791,-0.32470497488975525,0.17286647856235504,0.06960711628198624,-0.12223231047391891,0.36626696586608887,0.11498332768678665,-0.17035217583179474,0.1331327110528946,0.03951985761523247,-0.1414858102798462,-0.06771774590015411,0.0016380639281123877,-0.01721983589231968,-0.1037961095571518,0.05395697057247162,0.05882876738905907,0.0046829646453261375,-0.08316817879676819,-0.05658773332834244,-0.08693752437829971,0.18498140573501587,-0.2294638454914093,0.0005362533847801387,0.2548654079437256,-0.18732038140296936,-0.47250449657440186,-0.09956949949264526,0.00384252960793674,0.0037740913685411215,0.07888111472129822,0.22805070877075195,0.042675651609897614,-0.02579163759946823,0.07883493602275848,-0.24372148513793945,0.11269532144069672,-0.01897512935101986,0.11110180616378784,0.1332883983850479,-0.18580305576324463,-0.0276360921561718,-0.22977104783058167,-0.15493811666965485,0.125300794839859,0.05172864347696304,0.013690280728042126,0.03454690799117088,0.04922975227236748,-0.07851530611515045,-0.017713170498609543,-0.14955635368824005,-0.16869217157363892,0.14716596901416779,0.12293010950088501,0.09689277410507202,0.0883469209074974,0.1404540240764618,0.0456078015267849,-0.05151445046067238,0.0005566026084125042,-0.029207689687609673,0.20804250240325928,0.08119037747383118,0.1184072270989418,0.022841067984700203,0.10782475769519806,0.20360969007015228,0.14486102759838104,-0.1464557945728302,0.023912062868475914,-0.0008201373857446015,0.11810516566038132,-0.010174243710935116,0.028736185282468796,-0.023177430033683777,-0.024357227608561516,-0.03624042868614197,-0.0013105309335514903,2.1957221031188965,0.26667484641075134,0.005356230773031712,-0.01980701833963394,0.15497325360774994,0.04587998986244202,0.022237122058868408,0.10539612174034119,-0.04201609641313553,0.09862527996301651,0.016708441078662872,0.00901784747838974,-0.03988097608089447,0.14399580657482147,0.25346946716308594,0.123649962246418,-0.021181439980864525,-0.19110114872455597,-0.2457948625087738,-0.011353155598044395,-0.30758312344551086,0.23041996359825134,0.1276160180568695,-0.016460005193948746,-0.03203143924474716,0.0826912373304367,0.06483306735754013,-0.10061835497617722,0.0566391721367836,0.03165358304977417,0.02918981947004795,0.031964439898729324,0.08107412606477737,0.189727321267128,-0.0575544498860836,0.0373578704893589,0.07475870102643967,-0.24740639328956604,-0.05544207617640495,0.02588544599711895,0.037012793123722076,-0.1987432986497879,0.2578924894332886,0.03767562657594681,0.09733258932828903,0.20819032192230225,0.011446001939475536,-0.1434289515018463,0.12735813856124878,0.1466151624917984,-0.06820999830961227,-0.025375477969646454,-0.08022718131542206,0.07116740942001343,-0.037001531571149826,-0.13708242774009705,0.11417154222726822,-0.0356193482875824,-0.05538297817111015,0.25325503945350647,0.005273493006825447,0.10187660157680511,0.17120859026908875,-0.05100691318511963,0.1627238690853119,-0.011353266425430775,-0.20149481296539307,0.13366301357746124,-0.03707144781947136,0.0004149700398556888,-0.005116350017488003,0.07526010274887085,0.13484199345111847,0.019025128334760666,0.10122723877429962,-0.050095681101083755,0.24619445204734802,-0.012282244861125946,-0.07784023135900497,-3.059347152709961,0.03747301176190376,0.03420400992035866,0.1024259552359581,0.03355993330478668,0.2741841971874237,0.15031827986240387,-0.09013595432043076,-0.006264007184654474,-0.11143907904624939,0.13947676122188568,0.1950809806585312,0.15414780378341675,0.11221203207969666,0.1778145581483841,0.1290142983198166,0.005809583235532045,-0.10786134749650955,-0.023446492850780487,-0.03115711733698845,-0.060694340616464615,0.03310178592801094,-0.11380574852228165,-0.11271701008081436,-0.21613694727420807,0.1079513356089592,-0.13295285403728485,-0.1140197217464447,0.01601244881749153,-0.046644262969493866,-0.08380575478076935,0.19572114944458008,-0.02997610718011856,0.08653512597084045,-0.0029008109122514725,-0.16341228783130646,-0.04328623414039612,-0.049102190881967545,0.03821033239364624,0.09580245614051819,-0.07566981017589569,0.2633850574493408,-0.014444884844124317,0.05652998760342598,-0.08687164634466171,0.027485419064760208,0.1986558884382248,-0.2105790078639984,0.09596889466047287,-0.18641075491905212,-0.05892234295606613,0.16281290352344513,0.0422809012234211,-0.00726217869669199,0.20829254388809204,0.0713079422712326,0.145191952586174,0.016678214073181152,-0.0618634968996048,-0.12279532104730606,-0.009446087293326855,0.08656914532184601,0.02549426630139351,0.01522531732916832,0.1988319754600525,-0.03591323271393776,-0.1186763197183609,-0.01968502439558506,0.002093460178002715,-0.04947064816951752,-0.07747022807598114,-0.04364804923534393,0.18836775422096252,0.07845425605773926,0.07257895171642303,-0.008872226811945438,0.17663587629795074,0.1857638955116272,0.025494040921330452,0.125010684132576,0.010623917914927006,-0.16271325945854187,0.05314354598522186,-0.010232662782073021,0.11894812434911728,-8.032013893127441,-0.2082340568304062,-0.12291418761014938,-0.12832552194595337,0.027281660586595535,-0.053754787892103195,0.06322569400072098,-0.08902779221534729,0.05012627691030502,-0.04610813036561012,0.15612323582172394,-0.09315314143896103,-0.07616328448057175,-0.10279052704572678,0.1283126324415207,0.22058787941932678
user710,-0.19854667782783508,-0.12291236966848373,0.04796908050775528,-0.0985223576426506,-0.06043844670057297,-0.0857064425945282,0.1524728387594223,0.29019197821617126,-0.1739635467529297,-0.21448300778865814,-0.003183376742526889,-0.10621748119592667,-0.05919838324189186,0.23805302381515503,0.02594151720404625,0.0718751773238182,-0.11266905814409256,0.18196918070316315,0.16816657781600952,-0.11121851205825806,0.01194511167705059,-0.2789141833782196,0.01457053329795599,-0.1202889159321785,-0.04197567328810692,-0.038063980638980865,-0.027571098878979683,-0.008750822395086288,0.034286536276340485,0.07244603335857391,-0.027527067810297012,0.11344274878501892,-0.07392065227031708,-0.09483525902032852,0.02464846335351467,-0.05286821722984314,0.09006430953741074,0.012913040816783905,0.06919388473033905,0.06656864285469055,-0.043744560331106186,-0.016130957752466202,0.16116932034492493,-0.03089842014014721,0.056160639971494675,-0.08177877217531204,-2.0759506225585938,-0.0038918242789804935,-0.20499540865421295,-0.2125776708126068,0.13298353552818298,-0.033904146403074265,0.14516860246658325,0.23800359666347504,0.17436394095420837,0.29419076442718506,-0.045261725783348083,0.34011080861091614,0.04741606116294861,0.08548962324857712,0.1374216228723526,-0.012809675186872482,-0.07338100671768188,-0.003473020391538739,-0.037938956171274185,0.027290930971503258,-0.06676554679870605,0.24668967723846436,-0.2448675036430359,0.37572750449180603,-0.17197337746620178,-0.09922636300325394,0.22106075286865234,-0.03523898124694824,0.050561968237161636,-0.09118900448083878,0.013619397766888142,0.1984606385231018,-0.02937319315969944,-0.02253592200577259,0.055750951170921326,0.15556105971336365,0.24931997060775757,0.12853075563907623,0.015448397025465965,0.17011813819408417,-0.1490989476442337,-0.18925680220127106,0.09643660485744476,0.4283163547515869,-0.15024319291114807,-0.08907703310251236,0.13611750304698944,0.2300846129655838,0.2817052900791168,-0.2064274400472641,-0.07935960590839386,0.02752409502863884,0.30353844165802,0.2352665662765503,0.056893881410360336,-0.03179164603352547,0.03924709931015968,-0.2321937382221222,0.02306784875690937,-0.10348356515169144,-0.0859886109828949,-0.1526050567626953,-0.05698663368821144,-2.321920156478882,0.17407578229904175,0.18854957818984985,-0.07335755228996277,-0.2174932360649109,-0.13689155876636505,0.24275974929332733,0.16755875945091248,0.040505070239305496,0.060271989554166794,0.04449309781193733,-0.07299893349409103,0.467639684677124,0.048817139118909836,0.004563799127936363,0.06854905933141708,0.27060043811798096,0.0291339922696352,-0.013640979304909706,0.20843221247196198,0.13509970903396606,0.1575930118560791,0.33905211091041565,-0.08786095678806305,-0.042687658220529556,-0.10991818457841873,0.0869041383266449,0.23548048734664917,-0.04800938442349434,-0.11936167627573013,-0.0025220310781151056,-0.2931671440601349,-0.04103127121925354,-2.7219936847686768,0.21068210899829865,0.3599616587162018,-0.006845027208328247,-0.06740717589855194,-0.058084145188331604,-0.006326477508991957,0.1712234914302826,0.09787997603416443,0.07301367819309235,-0.13672998547554016,0.04237746819853783,-0.22021111845970154,0.11898106336593628,-0.11400498449802399,-0.08277950435876846,0.14766640961170197,0.15017804503440857,0.0784732773900032,-0.04338446259498596,-0.07251423597335815,-0.10631757974624634,-0.057852279394865036,0.045877233147621155,0.13441358506679535,0.11769980192184448,0.10437443107366562,-0.013699055649340153,-0.11112111806869507,-0.0262044295668602,0.26608994603157043,-0.054493874311447144,0.21376076340675354,0.00720341457054019,0.07705512642860413,0.2314908802509308,-0.03861425817012787,0.00547320069745183,-0.1503245085477829,0.27817025780677795,0.1146702840924263,0.08383341133594513,0.018389679491519928,-0.05694051831960678,0.20007310807704926,-0.1695135533809662,0.11479520052671432,0.19554096460342407,-0.08936640620231628,-0.07892455905675888,0.08810054510831833,0.05942879244685173,0.21807485818862915,0.003389590885490179,0.030037812888622284,-0.3974142372608185,0.2004081755876541,0.07467979937791824,-0.08944082260131836,-0.07322210818529129,-0.013318104669451714,0.030374115332961082,-0.17401939630508423,3.370166063308716,0.01695062965154648,-0.04562985524535179,0.0886734127998352,0.17233963310718536,0.0016830941895022988,0.09735837578773499,-0.05258817970752716,-0.15744103491306305,0.2516185939311981,-0.03768611699342728,0.19813740253448486,-0.03615035116672516,0.018144384026527405,-0.02268451452255249,0.16863317787647247,0.18526780605316162,0.027930347248911858,0.21735599637031555,-0.22417613863945007,0.2328217476606369,0.07349708676338196,0.0988440066576004,0.024695344269275665,-1.0534626245498657,0.09090469032526016,-0.07861796021461487,-0.03822613134980202,0.2268020063638687,-0.1477183699607849,-0.031877439469099045,0.029933886602520943,-0.030461227521300316,0.14863221347332,0.009167050942778587,-0.08256758004426956,0.11964652687311172,0.2538069784641266,0.1373891681432724,-0.1558098942041397,0.179576113820076,0.16476869583129883,0.02057548239827156,0.016488051041960716,-0.08690890669822693,0.16512788832187653,-0.16011811792850494,-0.042477793991565704,-0.20150797069072723,0.012922034598886967,-0.07744959741830826,0.11416487395763397,-0.02578093856573105,-0.2386765033006668,-0.04944343492388725,-0.1867903769016266,-0.044730283319950104,0.18584249913692474,0.01699298433959484,-0.2309899926185608,-0.17955617606639862,0.00408724881708622,-0.16529203951358795,0.18042515218257904,-0.04706437885761261,-0.06881114840507507,0.009468394331634045,-0.23982377350330353,-3.678212881088257,-0.04141070321202278,-0.07100939005613327,0.2826847732067108,0.18655015528202057,-0.022886551916599274,-0.0055815428495407104,0.07565967738628387,0.2337825447320938,-0.14165757596492767,0.3170165717601776,0.13367792963981628,0.021950738504529,0.14690616726875305,-0.3277450501918793,0.12731771171092987,-0.01517643965780735,-0.1126970648765564,0.017044447362422943,-0.11522208899259567,0.09127729386091232,0.2837994694709778,-0.11359960585832596,0.01960773579776287,-0.038596294820308685,-0.08945714682340622,-0.23054103553295135,-0.23518891632556915,0.05859775468707085,-0.08359691500663757,-0.0584934763610363,-0.19314634799957275,0.11604993045330048,-0.15389518439769745,-0.17602796852588654,-2.919905662536621,-0.0535394586622715,-0.1364065706729889,-0.09920521825551987,0.08989717811346054,-0.1699935793876648,0.2472446858882904,-0.10695059597492218,-0.1788691282272339,0.08127930015325546,0.08994198590517044,-0.07583440095186234,0.06980912387371063,0.11287018656730652,0.21977661550045013,0.20193836092948914,0.17821504175662994,0.008888253010809422,0.061832185834646225,0.09763069450855255,-0.013047074899077415,-0.03828790411353111,0.0032308122608810663,-0.10035524517297745,0.004835426341742277,0.26002854108810425,-0.35835158824920654,0.024712152779102325,-0.22648245096206665,-0.16446760296821594,-0.015779811888933182,-0.11294244974851608,-0.07571420073509216,0.009472209960222244,-0.17007780075073242,-0.17438150942325592,0.09822395443916321,0.2564278542995453,0.34548622369766235,0.11195338517427444,-0.15893469750881195,0.5073594450950623,0.07687347382307053,0.1867823749780655,0.3983268737792969,0.0822208896279335,0.07667657732963562,-0.16986413300037384,-0.07653433829545975,0.1214335560798645,-0.042026691138744354,-0.07299423962831497,0.9990177750587463,-0.0649750754237175,0.16129955649375916,-0.16145984828472137,0.28810152411460876,0.08109381794929504,-0.04853929951786995,0.05220375955104828,0.3435090184211731,-0.07804012298583984,0.1209038719534874,-0.055742666125297546,0.01633627340197563,-0.23813468217849731,0.1327829211950302,-0.2983495593070984,0.023816099390387535,-0.029318828135728836,-0.10998430848121643,0.22069306671619415,0.01656358502805233,-0.8519694805145264,-0.1234210878610611,0.09855787456035614,-0.0878010243177414,0.0844004899263382,0.003608077997341752,0.04250485822558403,-0.2208656668663025,-0.0031973631121218204,-0.002751475665718317,0.253498375415802,-0.15950942039489746,-0.030753731727600098,-0.0691995844244957,-0.049235206097364426,-0.32329311966896057,0.10887735337018967,-0.11287082731723785,0.0840592309832573,0.1354007124900818,0.036277543753385544,0.06977058202028275,0.004860409535467625,0.3046301007270813,-0.7524604797363281,0.09772754460573196,-0.1609634906053543,0.0819844976067543,-0.1932668834924698,-0.10407233983278275,-0.035780541598796844,-0.18108461797237396,-0.14079943299293518,-0.18172305822372437,0.3102596402168274,-0.03118828684091568,0.12153775990009308,0.0697169080376625,0.11642889678478241,0.05408110097050667,0.10343054682016373,0.7289649844169617,-0.06483021378517151,-0.028041131794452667,0.26144540309906006,0.008055498823523521,0.14531010389328003,0.12071722000837326,0.11147434264421463,-0.009574156254529953,-0.05401601269841194,-0.08441285043954849,0.003877801587805152,-0.05204273387789726,-0.23669002950191498,-0.27284058928489685,0.013674676418304443,0.028955692425370216,-0.008796250447630882,-0.04826139286160469,-0.5183236598968506,-0.002430371940135956,-0.2873002290725708,-0.12312087416648865,0.16482286155223846,0.293273389339447,-0.01213915552943945,0.21197359263896942,0.08696117252111435,0.006682732608169317,0.3471543788909912,-0.0299500934779644,0.28759101033210754,0.0795043483376503,0.037502750754356384,-0.016319183632731438,0.2717864513397217,-0.05930054187774658,-0.26993662118911743,0.14466337859630585,-0.19463606178760529,0.1160416230559349,-0.0008321637869812548,0.010238531045615673,-0.08453274518251419,-0.04872600734233856,-0.05817965045571327,0.03519243746995926,0.09523102641105652,-1.1647448539733887,0.2455131560564041,0.11607930064201355,-0.03229871392250061,0.09853596985340118,-0.09178920835256577,-0.14283202588558197,0.26642733812332153,0.0686861127614975,0.028298769146203995,-0.10917984694242477,-0.08886680752038956,-0.051422879099845886,0.006657387595623732,0.024431077763438225,-0.09786909818649292,0.09901902824640274,0.06523130089044571,0.03758001700043678,0.10692086070775986,-0.03350343927741051,0.31522297859191895,0.10311082005500793,-0.10409125685691833,-0.05220148712396622,0.003896476933732629,0.00918995775282383,0.3317718505859375,0.0758645236492157,0.12765038013458252,0.04410555958747864,-0.2500099837779999,-0.41992634534835815,-0.06976555287837982,0.23812155425548553,0.1967618614435196,0.055785004049539566,-0.015513306483626366,0.1451129913330078,0.0830233097076416,-0.3160678744316101,0.22818045318126678,0.14513978362083435,-0.028060652315616608,0.43663010001182556,0.1668444275856018,-0.13424617052078247,0.0741918608546257,0.074941486120224,-0.20726875960826874,-0.14664947986602783,-0.07337213307619095,-0.016913538798689842,-0.13258932530879974,0.00550882238894701,0.02978411503136158,-0.03464218229055405,0.012765131890773773,-0.1678009033203125,-0.0671248584985733,0.20159102976322174,-0.20410075783729553,-0.04372032731771469,0.21599744260311127,-0.11049076914787292,-0.5116753578186035,-0.10823061317205429,0.029917052015662193,0.005804036743938923,0.09793364256620407,0.27557677030563354,0.05166515335440636,-0.05344894900918007,0.14233097434043884,-0.34142613410949707,0.11912716925144196,0.048797909170389175,0.05624505504965782,0.03205081820487976,-0.19097231328487396,-0.01281721144914627,-0.32252582907676697,-0.2188851237297058,0.20163913071155548,-0.03783953934907913,0.07771992683410645,-0.045666757971048355,0.05784277617931366,-0.013583066873252392,0.0036354297772049904,-0.23607662320137024,-0.19564585387706757,0.12708236277103424,0.04820176959037781,0.10619650781154633,-0.03260881453752518,0.06050701066851616,0.017726782709360123,-0.08744902908802032,0.033637698739767075,-0.027048539370298386,0.2428959310054779,0.1155085489153862,0.17980077862739563,0.09091125428676605,0.05373641476035118,0.18017087876796722,0.08942463248968124,-0.19905762374401093,0.03528384491801262,0.020214226096868515,0.07678354531526566,-0.08196274936199188,0.025732534006237984,0.00019463822536636144,-0.17473600804805756,-0.06000395864248276,-0.00754401134327054,1.9718329906463623,0.3031842112541199,0.02292335033416748,0.05729884281754494,0.2259984165430069,0.04402763769030571,-0.026452558115124702,0.13615915179252625,-0.07531856745481491,0.20041902363300323,-0.0023600533604621887,0.09227508306503296,-0.08271168917417526,0.1339118629693985,0.2776956260204315,0.2061370611190796,-0.02779022604227066,-0.25647106766700745,-0.2778022587299347,-0.0007628290331922472,-0.3422854244709015,0.2709367275238037,0.2263212651014328,0.022395281121134758,-0.01247448567301035,0.12026628851890564,0.050880420953035355,-0.1609167903661728,0.08067400008440018,0.0774998739361763,-0.03896723687648773,0.0603998601436615,0.13606715202331543,0.30564993619918823,-0.10634038597345352,0.028497077524662018,0.06466607749462128,-0.2755209505558014,-0.14058339595794678,0.048383310437202454,0.03466471657156944,-0.22342686355113983,0.34196117520332336,-0.01566169783473015,0.03886907920241356,0.31625470519065857,-0.05182800441980362,-0.21288086473941803,0.2136843502521515,0.15662318468093872,0.018341224640607834,-0.056302785873413086,-0.16250935196876526,0.11679934710264206,-0.0947212502360344,-0.09210658818483353,0.054740291088819504,0.00172750826459378,-0.011233175173401833,0.2557259202003479,0.02624185010790825,0.1553056538105011,0.23829421401023865,-0.08043225109577179,0.12683522701263428,0.06716161966323853,-0.22519119083881378,0.13390423357486725,0.06904719024896622,0.07046578079462051,0.02148905023932457,0.1398445963859558,0.15755151212215424,0.11372634768486023,0.12420491874217987,-0.09281584620475769,0.27447688579559326,0.04109146445989609,-0.1043170765042305,-2.6892011165618896,0.12341927736997604,0.0554199256002903,0.10915984958410263,-0.03691272437572479,0.2791760563850403,0.20019669830799103,-0.09904598444700241,0.06117798760533333,-0.13292932510375977,0.1350172609090805,0.2051105946302414,0.22482621669769287,0.08803197741508484,0.13579818606376648,0.05088243633508682,0.05816660448908806,-0.09080266207456589,-0.03992658108472824,-0.14686383306980133,-0.03239750117063522,0.06703098863363266,-0.06389765441417694,-0.22631007432937622,-0.2646484375,0.10585620254278183,-0.17397233843803406,-0.18161603808403015,0.06783750653266907,0.06945235282182693,-0.14736486971378326,0.1843421310186386,-0.06188247352838516,0.08184755593538284,-0.011470851488411427,-0.23188529908657074,-0.07413557171821594,-0.029690029099583626,0.0021154351998120546,0.10585790872573853,-0.073148213326931,0.33523261547088623,-0.04306376352906227,0.08571531623601913,-0.09849561750888824,0.046668361872434616,0.26681244373321533,-0.22253668308258057,0.2321125864982605,-0.23494304716587067,-0.008079012855887413,0.13942614197731018,0.09324730187654495,-0.03457917645573616,0.1673620641231537,0.0744168758392334,0.11090078949928284,0.07151971757411957,-0.02414412796497345,-0.19151705503463745,-0.020641829818487167,0.0384708009660244,-0.02480373904109001,0.07248585671186447,0.2065427005290985,-0.07857504487037659,-0.12101084738969803,-0.058884941041469574,-0.0353815034031868,-0.06283322721719742,-0.0997002050280571,-0.10380363464355469,0.16236616671085358,0.12442722171545029,0.06819289922714233,-0.06006249040365219,0.2699122726917267,0.19485832750797272,0.0733194649219513,0.15871462225914001,0.042468346655368805,-0.23560407757759094,0.0020810202695429325,-0.03110216185450554,0.19662177562713623,-7.236434459686279,-0.19635547697544098,-0.1430983692407608,-0.06348293274641037,-0.08036386221647263,-0.17439156770706177,0.08064798265695572,-0.11923129856586456,0.07316750288009644,-0.0830029770731926,0.17799730598926544,-0.03881162032485008,-0.06498470157384872,-0.14836125075817108,0.18887963891029358,0.2597810626029968
